digraph Tree {
node [shape=box, style="filled, rounded", color="black", fontname=helvetica] ;
edge [fontname=helvetica] ;
0 [label=<failures &le; 0.5<br/>gini = 0.442<br/>samples = 395<br/>value = [130, 265]<br/>class = Pass>, fillcolor="#399de582"] ;
1 [label=<Fedu &le; 3.5<br/>gini = 0.375<br/>samples = 312<br/>value = [78, 234]<br/>class = Pass>, fillcolor="#399de5aa"] ;
0 -> 1 [labeldistance=2.5, labelangle=45, headlabel="True"] ;
2 [label=<famsup &le; 0.0<br/>gini = 0.398<br/>samples = 226<br/>value = [62, 164]<br/>class = Pass>, fillcolor="#399de59f"] ;
1 -> 2 ;
3 [label=<famrel &le; 2.5<br/>gini = 0.343<br/>samples = 91<br/>value = [20, 71]<br/>class = Pass>, fillcolor="#399de5b7"] ;
2 -> 3 ;
4 [label=<gini = 0.0<br/>samples = 8<br/>value = [0, 8]<br/>class = Pass>, fillcolor="#399de5ff"] ;
3 -> 4 ;
5 [label=<Medu &le; 2.5<br/>gini = 0.366<br/>samples = 83<br/>value = [20, 63]<br/>class = Pass>, fillcolor="#399de5ae"] ;
3 -> 5 ;
6 [label=<higher &le; 0.0<br/>gini = 0.4<br/>samples = 47<br/>value = [13, 34]<br/>class = Pass>, fillcolor="#399de59e"] ;
5 -> 6 ;
7 [label=<gini = 0.0<br/>samples = 2<br/>value = [0, 2]<br/>class = Pass>, fillcolor="#399de5ff"] ;
6 -> 7 ;
8 [label=<Pstatus &le; 0.0<br/>gini = 0.411<br/>samples = 45<br/>value = [13, 32]<br/>class = Pass>, fillcolor="#399de597"] ;
6 -> 8 ;
9 [label=<gini = 0.0<br/>samples = 2<br/>value = [0, 2]<br/>class = Pass>, fillcolor="#399de5ff"] ;
8 -> 9 ;
10 [label=<Medu &le; 0.5<br/>gini = 0.422<br/>samples = 43<br/>value = [13, 30]<br/>class = Pass>, fillcolor="#399de591"] ;
8 -> 10 ;
11 [label=<gini = 0.0<br/>samples = 2<br/>value = [0, 2]<br/>class = Pass>, fillcolor="#399de5ff"] ;
10 -> 11 ;
12 [label=<Fedu &le; 2.5<br/>gini = 0.433<br/>samples = 41<br/>value = [13, 28]<br/>class = Pass>, fillcolor="#399de589"] ;
10 -> 12 ;
13 [label=<Fedu &le; 1.5<br/>gini = 0.451<br/>samples = 35<br/>value = [12, 23]<br/>class = Pass>, fillcolor="#399de57a"] ;
12 -> 13 ;
14 [label=<famrel &le; 3.5<br/>gini = 0.415<br/>samples = 17<br/>value = [5, 12]<br/>class = Pass>, fillcolor="#399de595"] ;
13 -> 14 ;
15 [label=<Medu &le; 1.5<br/>gini = 0.5<br/>samples = 4<br/>value = [2, 2]<br/>class = Fail>, fillcolor="#e5813900"] ;
14 -> 15 ;
16 [label=<gini = 0.444<br/>samples = 3<br/>value = [1, 2]<br/>class = Pass>, fillcolor="#399de57f"] ;
15 -> 16 ;
17 [label=<gini = 0.0<br/>samples = 1<br/>value = [1, 0]<br/>class = Fail>, fillcolor="#e58139ff"] ;
15 -> 17 ;
18 [label=<famrel &le; 4.5<br/>gini = 0.355<br/>samples = 13<br/>value = [3, 10]<br/>class = Pass>, fillcolor="#399de5b3"] ;
14 -> 18 ;
19 [label=<Medu &le; 1.5<br/>gini = 0.219<br/>samples = 8<br/>value = [1, 7]<br/>class = Pass>, fillcolor="#399de5db"] ;
18 -> 19 ;
20 [label=<gini = 0.0<br/>samples = 2<br/>value = [0, 2]<br/>class = Pass>, fillcolor="#399de5ff"] ;
19 -> 20 ;
21 [label=<gini = 0.278<br/>samples = 6<br/>value = [1, 5]<br/>class = Pass>, fillcolor="#399de5cc"] ;
19 -> 21 ;
22 [label=<Medu &le; 1.5<br/>gini = 0.48<br/>samples = 5<br/>value = [2, 3]<br/>class = Pass>, fillcolor="#399de555"] ;
18 -> 22 ;
23 [label=<gini = 0.444<br/>samples = 3<br/>value = [1, 2]<br/>class = Pass>, fillcolor="#399de57f"] ;
22 -> 23 ;
24 [label=<gini = 0.5<br/>samples = 2<br/>value = [1, 1]<br/>class = Fail>, fillcolor="#e5813900"] ;
22 -> 24 ;
25 [label=<famrel &le; 3.5<br/>gini = 0.475<br/>samples = 18<br/>value = [7, 11]<br/>class = Pass>, fillcolor="#399de55d"] ;
13 -> 25 ;
26 [label=<Medu &le; 1.5<br/>gini = 0.408<br/>samples = 7<br/>value = [2, 5]<br/>class = Pass>, fillcolor="#399de599"] ;
25 -> 26 ;
27 [label=<gini = 0.375<br/>samples = 4<br/>value = [1, 3]<br/>class = Pass>, fillcolor="#399de5aa"] ;
26 -> 27 ;
28 [label=<gini = 0.444<br/>samples = 3<br/>value = [1, 2]<br/>class = Pass>, fillcolor="#399de57f"] ;
26 -> 28 ;
29 [label=<Medu &le; 1.5<br/>gini = 0.496<br/>samples = 11<br/>value = [5, 6]<br/>class = Pass>, fillcolor="#399de52a"] ;
25 -> 29 ;
30 [label=<gini = 0.0<br/>samples = 2<br/>value = [2, 0]<br/>class = Fail>, fillcolor="#e58139ff"] ;
29 -> 30 ;
31 [label=<famrel &le; 4.5<br/>gini = 0.444<br/>samples = 9<br/>value = [3, 6]<br/>class = Pass>, fillcolor="#399de57f"] ;
29 -> 31 ;
32 [label=<gini = 0.48<br/>samples = 5<br/>value = [2, 3]<br/>class = Pass>, fillcolor="#399de555"] ;
31 -> 32 ;
33 [label=<gini = 0.375<br/>samples = 4<br/>value = [1, 3]<br/>class = Pass>, fillcolor="#399de5aa"] ;
31 -> 33 ;
34 [label=<famrel &le; 4.5<br/>gini = 0.278<br/>samples = 6<br/>value = [1, 5]<br/>class = Pass>, fillcolor="#399de5cc"] ;
12 -> 34 ;
35 [label=<gini = 0.444<br/>samples = 3<br/>value = [1, 2]<br/>class = Pass>, fillcolor="#399de57f"] ;
34 -> 35 ;
36 [label=<gini = 0.0<br/>samples = 3<br/>value = [0, 3]<br/>class = Pass>, fillcolor="#399de5ff"] ;
34 -> 36 ;
37 [label=<higher &le; 0.0<br/>gini = 0.313<br/>samples = 36<br/>value = [7, 29]<br/>class = Pass>, fillcolor="#399de5c1"] ;
5 -> 37 ;
38 [label=<gini = 0.0<br/>samples = 1<br/>value = [1, 0]<br/>class = Fail>, fillcolor="#e58139ff"] ;
37 -> 38 ;
39 [label=<Fedu &le; 2.5<br/>gini = 0.284<br/>samples = 35<br/>value = [6, 29]<br/>class = Pass>, fillcolor="#399de5ca"] ;
37 -> 39 ;
40 [label=<Pstatus &le; 0.0<br/>gini = 0.124<br/>samples = 15<br/>value = [1, 14]<br/>class = Pass>, fillcolor="#399de5ed"] ;
39 -> 40 ;
41 [label=<Fedu &le; 1.5<br/>gini = 0.5<br/>samples = 2<br/>value = [1, 1]<br/>class = Fail>, fillcolor="#e5813900"] ;
40 -> 41 ;
42 [label=<gini = 0.0<br/>samples = 1<br/>value = [1, 0]<br/>class = Fail>, fillcolor="#e58139ff"] ;
41 -> 42 ;
43 [label=<gini = 0.0<br/>samples = 1<br/>value = [0, 1]<br/>class = Pass>, fillcolor="#399de5ff"] ;
41 -> 43 ;
44 [label=<gini = 0.0<br/>samples = 13<br/>value = [0, 13]<br/>class = Pass>, fillcolor="#399de5ff"] ;
40 -> 44 ;
45 [label=<Pstatus &le; 0.0<br/>gini = 0.375<br/>samples = 20<br/>value = [5, 15]<br/>class = Pass>, fillcolor="#399de5aa"] ;
39 -> 45 ;
46 [label=<gini = 0.0<br/>samples = 2<br/>value = [0, 2]<br/>class = Pass>, fillcolor="#399de5ff"] ;
45 -> 46 ;
47 [label=<Medu &le; 3.5<br/>gini = 0.401<br/>samples = 18<br/>value = [5, 13]<br/>class = Pass>, fillcolor="#399de59d"] ;
45 -> 47 ;
48 [label=<famrel &le; 3.5<br/>gini = 0.469<br/>samples = 8<br/>value = [3, 5]<br/>class = Pass>, fillcolor="#399de566"] ;
47 -> 48 ;
49 [label=<gini = 0.0<br/>samples = 1<br/>value = [1, 0]<br/>class = Fail>, fillcolor="#e58139ff"] ;
48 -> 49 ;
50 [label=<famrel &le; 4.5<br/>gini = 0.408<br/>samples = 7<br/>value = [2, 5]<br/>class = Pass>, fillcolor="#399de599"] ;
48 -> 50 ;
51 [label=<gini = 0.375<br/>samples = 4<br/>value = [1, 3]<br/>class = Pass>, fillcolor="#399de5aa"] ;
50 -> 51 ;
52 [label=<gini = 0.444<br/>samples = 3<br/>value = [1, 2]<br/>class = Pass>, fillcolor="#399de57f"] ;
50 -> 52 ;
53 [label=<famrel &le; 4.5<br/>gini = 0.32<br/>samples = 10<br/>value = [2, 8]<br/>class = Pass>, fillcolor="#399de5bf"] ;
47 -> 53 ;
54 [label=<famrel &le; 3.5<br/>gini = 0.219<br/>samples = 8<br/>value = [1, 7]<br/>class = Pass>, fillcolor="#399de5db"] ;
53 -> 54 ;
55 [label=<gini = 0.0<br/>samples = 2<br/>value = [0, 2]<br/>class = Pass>, fillcolor="#399de5ff"] ;
54 -> 55 ;
56 [label=<gini = 0.278<br/>samples = 6<br/>value = [1, 5]<br/>class = Pass>, fillcolor="#399de5cc"] ;
54 -> 56 ;
57 [label=<gini = 0.5<br/>samples = 2<br/>value = [1, 1]<br/>class = Fail>, fillcolor="#e5813900"] ;
53 -> 57 ;
58 [label=<Fedu &le; 1.5<br/>gini = 0.429<br/>samples = 135<br/>value = [42, 93]<br/>class = Pass>, fillcolor="#399de58c"] ;
2 -> 58 ;
59 [label=<Medu &le; 1.5<br/>gini = 0.477<br/>samples = 28<br/>value = [11, 17]<br/>class = Pass>, fillcolor="#399de55a"] ;
58 -> 59 ;
60 [label=<famrel &le; 3.5<br/>gini = 0.375<br/>samples = 12<br/>value = [3, 9]<br/>class = Pass>, fillcolor="#399de5aa"] ;
59 -> 60 ;
61 [label=<gini = 0.0<br/>samples = 1<br/>value = [1, 0]<br/>class = Fail>, fillcolor="#e58139ff"] ;
60 -> 61 ;
62 [label=<famrel &le; 4.5<br/>gini = 0.298<br/>samples = 11<br/>value = [2, 9]<br/>class = Pass>, fillcolor="#399de5c6"] ;
60 -> 62 ;
63 [label=<Fedu &le; 0.5<br/>gini = 0.219<br/>samples = 8<br/>value = [1, 7]<br/>class = Pass>, fillcolor="#399de5db"] ;
62 -> 63 ;
64 [label=<gini = 0.0<br/>samples = 1<br/>value = [0, 1]<br/>class = Pass>, fillcolor="#399de5ff"] ;
63 -> 64 ;
65 [label=<gini = 0.245<br/>samples = 7<br/>value = [1, 6]<br/>class = Pass>, fillcolor="#399de5d4"] ;
63 -> 65 ;
66 [label=<gini = 0.444<br/>samples = 3<br/>value = [1, 2]<br/>class = Pass>, fillcolor="#399de57f"] ;
62 -> 66 ;
67 [label=<famrel &le; 3.5<br/>gini = 0.5<br/>samples = 16<br/>value = [8, 8]<br/>class = Fail>, fillcolor="#e5813900"] ;
59 -> 67 ;
68 [label=<higher &le; 0.0<br/>gini = 0.375<br/>samples = 4<br/>value = [1, 3]<br/>class = Pass>, fillcolor="#399de5aa"] ;
67 -> 68 ;
69 [label=<gini = 0.0<br/>samples = 1<br/>value = [0, 1]<br/>class = Pass>, fillcolor="#399de5ff"] ;
68 -> 69 ;
70 [label=<gini = 0.444<br/>samples = 3<br/>value = [1, 2]<br/>class = Pass>, fillcolor="#399de57f"] ;
68 -> 70 ;
71 [label=<Medu &le; 2.5<br/>gini = 0.486<br/>samples = 12<br/>value = [7, 5]<br/>class = Fail>, fillcolor="#e5813949"] ;
67 -> 71 ;
72 [label=<famrel &le; 4.5<br/>gini = 0.408<br/>samples = 7<br/>value = [5, 2]<br/>class = Fail>, fillcolor="#e5813999"] ;
71 -> 72 ;
73 [label=<higher &le; 0.0<br/>gini = 0.32<br/>samples = 5<br/>value = [4, 1]<br/>class = Fail>, fillcolor="#e58139bf"] ;
72 -> 73 ;
74 [label=<gini = 0.0<br/>samples = 1<br/>value = [1, 0]<br/>class = Fail>, fillcolor="#e58139ff"] ;
73 -> 74 ;
75 [label=<gini = 0.375<br/>samples = 4<br/>value = [3, 1]<br/>class = Fail>, fillcolor="#e58139aa"] ;
73 -> 75 ;
76 [label=<gini = 0.5<br/>samples = 2<br/>value = [1, 1]<br/>class = Fail>, fillcolor="#e5813900"] ;
72 -> 76 ;
77 [label=<gini = 0.48<br/>samples = 5<br/>value = [2, 3]<br/>class = Pass>, fillcolor="#399de555"] ;
71 -> 77 ;
78 [label=<Fedu &le; 2.5<br/>gini = 0.412<br/>samples = 107<br/>value = [31, 76]<br/>class = Pass>, fillcolor="#399de597"] ;
58 -> 78 ;
79 [label=<famrel &le; 3.5<br/>gini = 0.375<br/>samples = 52<br/>value = [13, 39]<br/>class = Pass>, fillcolor="#399de5aa"] ;
78 -> 79 ;
80 [label=<gini = 0.0<br/>samples = 8<br/>value = [0, 8]<br/>class = Pass>, fillcolor="#399de5ff"] ;
79 -> 80 ;
81 [label=<Medu &le; 3.5<br/>gini = 0.416<br/>samples = 44<br/>value = [13, 31]<br/>class = Pass>, fillcolor="#399de594"] ;
79 -> 81 ;
82 [label=<Pstatus &le; 0.0<br/>gini = 0.457<br/>samples = 34<br/>value = [12, 22]<br/>class = Pass>, fillcolor="#399de574"] ;
81 -> 82 ;
83 [label=<gini = 0.0<br/>samples = 3<br/>value = [0, 3]<br/>class = Pass>, fillcolor="#399de5ff"] ;
82 -> 83 ;
84 [label=<famrel &le; 4.5<br/>gini = 0.475<br/>samples = 31<br/>value = [12, 19]<br/>class = Pass>, fillcolor="#399de55e"] ;
82 -> 84 ;
85 [label=<Medu &le; 2.5<br/>gini = 0.495<br/>samples = 20<br/>value = [9, 11]<br/>class = Pass>, fillcolor="#399de52e"] ;
84 -> 85 ;
86 [label=<higher &le; 0.0<br/>gini = 0.457<br/>samples = 17<br/>value = [6, 11]<br/>class = Pass>, fillcolor="#399de574"] ;
85 -> 86 ;
87 [label=<gini = 0.0<br/>samples = 1<br/>value = [0, 1]<br/>class = Pass>, fillcolor="#399de5ff"] ;
86 -> 87 ;
88 [label=<Medu &le; 1.5<br/>gini = 0.469<br/>samples = 16<br/>value = [6, 10]<br/>class = Pass>, fillcolor="#399de566"] ;
86 -> 88 ;
89 [label=<gini = 0.5<br/>samples = 2<br/>value = [1, 1]<br/>class = Fail>, fillcolor="#e5813900"] ;
88 -> 89 ;
90 [label=<gini = 0.459<br/>samples = 14<br/>value = [5, 9]<br/>class = Pass>, fillcolor="#399de571"] ;
88 -> 90 ;
91 [label=<gini = 0.0<br/>samples = 3<br/>value = [3, 0]<br/>class = Fail>, fillcolor="#e58139ff"] ;
85 -> 91 ;
92 [label=<Medu &le; 2.5<br/>gini = 0.397<br/>samples = 11<br/>value = [3, 8]<br/>class = Pass>, fillcolor="#399de59f"] ;
84 -> 92 ;
93 [label=<gini = 0.469<br/>samples = 8<br/>value = [3, 5]<br/>class = Pass>, fillcolor="#399de566"] ;
92 -> 93 ;
94 [label=<gini = 0.0<br/>samples = 3<br/>value = [0, 3]<br/>class = Pass>, fillcolor="#399de5ff"] ;
92 -> 94 ;
95 [label=<famrel &le; 4.5<br/>gini = 0.18<br/>samples = 10<br/>value = [1, 9]<br/>class = Pass>, fillcolor="#399de5e3"] ;
81 -> 95 ;
96 [label=<gini = 0.245<br/>samples = 7<br/>value = [1, 6]<br/>class = Pass>, fillcolor="#399de5d4"] ;
95 -> 96 ;
97 [label=<gini = 0.0<br/>samples = 3<br/>value = [0, 3]<br/>class = Pass>, fillcolor="#399de5ff"] ;
95 -> 97 ;
98 [label=<famrel &le; 3.5<br/>gini = 0.44<br/>samples = 55<br/>value = [18, 37]<br/>class = Pass>, fillcolor="#399de583"] ;
78 -> 98 ;
99 [label=<Medu &le; 1.5<br/>gini = 0.5<br/>samples = 12<br/>value = [6, 6]<br/>class = Fail>, fillcolor="#e5813900"] ;
98 -> 99 ;
100 [label=<gini = 0.0<br/>samples = 1<br/>value = [0, 1]<br/>class = Pass>, fillcolor="#399de5ff"] ;
99 -> 100 ;
101 [label=<Medu &le; 2.5<br/>gini = 0.496<br/>samples = 11<br/>value = [6, 5]<br/>class = Fail>, fillcolor="#e581392a"] ;
99 -> 101 ;
102 [label=<gini = 0.444<br/>samples = 3<br/>value = [2, 1]<br/>class = Fail>, fillcolor="#e581397f"] ;
101 -> 102 ;
103 [label=<Medu &le; 3.5<br/>gini = 0.5<br/>samples = 8<br/>value = [4, 4]<br/>class = Fail>, fillcolor="#e5813900"] ;
101 -> 103 ;
104 [label=<Pstatus &le; 0.0<br/>gini = 0.444<br/>samples = 3<br/>value = [1, 2]<br/>class = Pass>, fillcolor="#399de57f"] ;
103 -> 104 ;
105 [label=<famrel &le; 2.5<br/>gini = 0.5<br/>samples = 2<br/>value = [1, 1]<br/>class = Fail>, fillcolor="#e5813900"] ;
104 -> 105 ;
106 [label=<gini = 0.0<br/>samples = 1<br/>value = [0, 1]<br/>class = Pass>, fillcolor="#399de5ff"] ;
105 -> 106 ;
107 [label=<gini = 0.0<br/>samples = 1<br/>value = [1, 0]<br/>class = Fail>, fillcolor="#e58139ff"] ;
105 -> 107 ;
108 [label=<gini = 0.0<br/>samples = 1<br/>value = [0, 1]<br/>class = Pass>, fillcolor="#399de5ff"] ;
104 -> 108 ;
109 [label=<famrel &le; 2.5<br/>gini = 0.48<br/>samples = 5<br/>value = [3, 2]<br/>class = Fail>, fillcolor="#e5813955"] ;
103 -> 109 ;
110 [label=<gini = 0.0<br/>samples = 1<br/>value = [1, 0]<br/>class = Fail>, fillcolor="#e58139ff"] ;
109 -> 110 ;
111 [label=<gini = 0.5<br/>samples = 4<br/>value = [2, 2]<br/>class = Fail>, fillcolor="#e5813900"] ;
109 -> 111 ;
112 [label=<Medu &le; 2.5<br/>gini = 0.402<br/>samples = 43<br/>value = [12, 31]<br/>class = Pass>, fillcolor="#399de59c"] ;
98 -> 112 ;
113 [label=<gini = 0.0<br/>samples = 5<br/>value = [0, 5]<br/>class = Pass>, fillcolor="#399de5ff"] ;
112 -> 113 ;
114 [label=<Pstatus &le; 0.0<br/>gini = 0.432<br/>samples = 38<br/>value = [12, 26]<br/>class = Pass>, fillcolor="#399de589"] ;
112 -> 114 ;
115 [label=<famrel &le; 4.5<br/>gini = 0.375<br/>samples = 4<br/>value = [1, 3]<br/>class = Pass>, fillcolor="#399de5aa"] ;
114 -> 115 ;
116 [label=<gini = 0.0<br/>samples = 2<br/>value = [0, 2]<br/>class = Pass>, fillcolor="#399de5ff"] ;
115 -> 116 ;
117 [label=<gini = 0.5<br/>samples = 2<br/>value = [1, 1]<br/>class = Fail>, fillcolor="#e5813900"] ;
115 -> 117 ;
118 [label=<famrel &le; 4.5<br/>gini = 0.438<br/>samples = 34<br/>value = [11, 23]<br/>class = Pass>, fillcolor="#399de585"] ;
114 -> 118 ;
119 [label=<Medu &le; 3.5<br/>gini = 0.444<br/>samples = 21<br/>value = [7, 14]<br/>class = Pass>, fillcolor="#399de57f"] ;
118 -> 119 ;
120 [label=<gini = 0.42<br/>samples = 10<br/>value = [3, 7]<br/>class = Pass>, fillcolor="#399de592"] ;
119 -> 120 ;
121 [label=<gini = 0.463<br/>samples = 11<br/>value = [4, 7]<br/>class = Pass>, fillcolor="#399de56d"] ;
119 -> 121 ;
122 [label=<Medu &le; 3.5<br/>gini = 0.426<br/>samples = 13<br/>value = [4, 9]<br/>class = Pass>, fillcolor="#399de58e"] ;
118 -> 122 ;
123 [label=<gini = 0.444<br/>samples = 6<br/>value = [2, 4]<br/>class = Pass>, fillcolor="#399de57f"] ;
122 -> 123 ;
124 [label=<gini = 0.408<br/>samples = 7<br/>value = [2, 5]<br/>class = Pass>, fillcolor="#399de599"] ;
122 -> 124 ;
125 [label=<higher &le; 0.0<br/>gini = 0.303<br/>samples = 86<br/>value = [16, 70]<br/>class = Pass>, fillcolor="#399de5c5"] ;
1 -> 125 ;
126 [label=<gini = 0.0<br/>samples = 1<br/>value = [1, 0]<br/>class = Fail>, fillcolor="#e58139ff"] ;
125 -> 126 ;
127 [label=<famrel &le; 4.5<br/>gini = 0.291<br/>samples = 85<br/>value = [15, 70]<br/>class = Pass>, fillcolor="#399de5c8"] ;
125 -> 127 ;
128 [label=<famrel &le; 1.5<br/>gini = 0.32<br/>samples = 60<br/>value = [12, 48]<br/>class = Pass>, fillcolor="#399de5bf"] ;
127 -> 128 ;
129 [label=<gini = 0.0<br/>samples = 3<br/>value = [0, 3]<br/>class = Pass>, fillcolor="#399de5ff"] ;
128 -> 129 ;
130 [label=<famrel &le; 2.5<br/>gini = 0.332<br/>samples = 57<br/>value = [12, 45]<br/>class = Pass>, fillcolor="#399de5bb"] ;
128 -> 130 ;
131 [label=<Medu &le; 3.5<br/>gini = 0.48<br/>samples = 5<br/>value = [2, 3]<br/>class = Pass>, fillcolor="#399de555"] ;
130 -> 131 ;
132 [label=<gini = 0.0<br/>samples = 1<br/>value = [1, 0]<br/>class = Fail>, fillcolor="#e58139ff"] ;
131 -> 132 ;
133 [label=<Pstatus &le; 0.0<br/>gini = 0.375<br/>samples = 4<br/>value = [1, 3]<br/>class = Pass>, fillcolor="#399de5aa"] ;
131 -> 133 ;
134 [label=<gini = 0.0<br/>samples = 1<br/>value = [0, 1]<br/>class = Pass>, fillcolor="#399de5ff"] ;
133 -> 134 ;
135 [label=<gini = 0.444<br/>samples = 3<br/>value = [1, 2]<br/>class = Pass>, fillcolor="#399de57f"] ;
133 -> 135 ;
136 [label=<Pstatus &le; 0.0<br/>gini = 0.311<br/>samples = 52<br/>value = [10, 42]<br/>class = Pass>, fillcolor="#399de5c2"] ;
130 -> 136 ;
137 [label=<Medu &le; 3.5<br/>gini = 0.469<br/>samples = 8<br/>value = [3, 5]<br/>class = Pass>, fillcolor="#399de566"] ;
136 -> 137 ;
138 [label=<gini = 0.0<br/>samples = 3<br/>value = [0, 3]<br/>class = Pass>, fillcolor="#399de5ff"] ;
137 -> 138 ;
139 [label=<famrel &le; 3.5<br/>gini = 0.48<br/>samples = 5<br/>value = [3, 2]<br/>class = Fail>, fillcolor="#e5813955"] ;
137 -> 139 ;
140 [label=<gini = 0.0<br/>samples = 1<br/>value = [0, 1]<br/>class = Pass>, fillcolor="#399de5ff"] ;
139 -> 140 ;
141 [label=<famsup &le; 0.0<br/>gini = 0.375<br/>samples = 4<br/>value = [3, 1]<br/>class = Fail>, fillcolor="#e58139aa"] ;
139 -> 141 ;
142 [label=<gini = 0.0<br/>samples = 1<br/>value = [1, 0]<br/>class = Fail>, fillcolor="#e58139ff"] ;
141 -> 142 ;
143 [label=<gini = 0.444<br/>samples = 3<br/>value = [2, 1]<br/>class = Fail>, fillcolor="#e581397f"] ;
141 -> 143 ;
144 [label=<famsup &le; 0.0<br/>gini = 0.268<br/>samples = 44<br/>value = [7, 37]<br/>class = Pass>, fillcolor="#399de5cf"] ;
136 -> 144 ;
145 [label=<famrel &le; 3.5<br/>gini = 0.153<br/>samples = 12<br/>value = [1, 11]<br/>class = Pass>, fillcolor="#399de5e8"] ;
144 -> 145 ;
146 [label=<Medu &le; 3.5<br/>gini = 0.375<br/>samples = 4<br/>value = [1, 3]<br/>class = Pass>, fillcolor="#399de5aa"] ;
145 -> 146 ;
147 [label=<gini = 0.0<br/>samples = 1<br/>value = [0, 1]<br/>class = Pass>, fillcolor="#399de5ff"] ;
146 -> 147 ;
148 [label=<gini = 0.444<br/>samples = 3<br/>value = [1, 2]<br/>class = Pass>, fillcolor="#399de57f"] ;
146 -> 148 ;
149 [label=<gini = 0.0<br/>samples = 8<br/>value = [0, 8]<br/>class = Pass>, fillcolor="#399de5ff"] ;
145 -> 149 ;
150 [label=<Medu &le; 2.5<br/>gini = 0.305<br/>samples = 32<br/>value = [6, 26]<br/>class = Pass>, fillcolor="#399de5c4"] ;
144 -> 150 ;
151 [label=<gini = 0.375<br/>samples = 4<br/>value = [1, 3]<br/>class = Pass>, fillcolor="#399de5aa"] ;
150 -> 151 ;
152 [label=<Medu &le; 3.5<br/>gini = 0.293<br/>samples = 28<br/>value = [5, 23]<br/>class = Pass>, fillcolor="#399de5c8"] ;
150 -> 152 ;
153 [label=<gini = 0.0<br/>samples = 2<br/>value = [0, 2]<br/>class = Pass>, fillcolor="#399de5ff"] ;
152 -> 153 ;
154 [label=<famrel &le; 3.5<br/>gini = 0.311<br/>samples = 26<br/>value = [5, 21]<br/>class = Pass>, fillcolor="#399de5c2"] ;
152 -> 154 ;
155 [label=<gini = 0.278<br/>samples = 6<br/>value = [1, 5]<br/>class = Pass>, fillcolor="#399de5cc"] ;
154 -> 155 ;
156 [label=<gini = 0.32<br/>samples = 20<br/>value = [4, 16]<br/>class = Pass>, fillcolor="#399de5bf"] ;
154 -> 156 ;
157 [label=<Medu &le; 3.5<br/>gini = 0.211<br/>samples = 25<br/>value = [3, 22]<br/>class = Pass>, fillcolor="#399de5dc"] ;
127 -> 157 ;
158 [label=<Pstatus &le; 0.0<br/>gini = 0.375<br/>samples = 8<br/>value = [2, 6]<br/>class = Pass>, fillcolor="#399de5aa"] ;
157 -> 158 ;
159 [label=<gini = 0.0<br/>samples = 3<br/>value = [0, 3]<br/>class = Pass>, fillcolor="#399de5ff"] ;
158 -> 159 ;
160 [label=<Medu &le; 2.5<br/>gini = 0.48<br/>samples = 5<br/>value = [2, 3]<br/>class = Pass>, fillcolor="#399de555"] ;
158 -> 160 ;
161 [label=<gini = 0.0<br/>samples = 1<br/>value = [0, 1]<br/>class = Pass>, fillcolor="#399de5ff"] ;
160 -> 161 ;
162 [label=<famsup &le; 0.0<br/>gini = 0.5<br/>samples = 4<br/>value = [2, 2]<br/>class = Fail>, fillcolor="#e5813900"] ;
160 -> 162 ;
163 [label=<gini = 0.5<br/>samples = 2<br/>value = [1, 1]<br/>class = Fail>, fillcolor="#e5813900"] ;
162 -> 163 ;
164 [label=<gini = 0.5<br/>samples = 2<br/>value = [1, 1]<br/>class = Fail>, fillcolor="#e5813900"] ;
162 -> 164 ;
165 [label=<famsup &le; 0.0<br/>gini = 0.111<br/>samples = 17<br/>value = [1, 16]<br/>class = Pass>, fillcolor="#399de5ef"] ;
157 -> 165 ;
166 [label=<gini = 0.0<br/>samples = 6<br/>value = [0, 6]<br/>class = Pass>, fillcolor="#399de5ff"] ;
165 -> 166 ;
167 [label=<Pstatus &le; 0.0<br/>gini = 0.165<br/>samples = 11<br/>value = [1, 10]<br/>class = Pass>, fillcolor="#399de5e6"] ;
165 -> 167 ;
168 [label=<gini = 0.0<br/>samples = 1<br/>value = [0, 1]<br/>class = Pass>, fillcolor="#399de5ff"] ;
167 -> 168 ;
169 [label=<gini = 0.18<br/>samples = 10<br/>value = [1, 9]<br/>class = Pass>, fillcolor="#399de5e3"] ;
167 -> 169 ;
170 [label=<failures &le; 1.5<br/>gini = 0.468<br/>samples = 83<br/>value = [52, 31]<br/>class = Fail>, fillcolor="#e5813967"] ;
0 -> 170 [labeldistance=2.5, labelangle=-45, headlabel="False"] ;
171 [label=<Medu &le; 1.5<br/>gini = 0.499<br/>samples = 50<br/>value = [26, 24]<br/>class = Fail>, fillcolor="#e5813914"] ;
170 -> 171 ;
172 [label=<famrel &le; 4.5<br/>gini = 0.444<br/>samples = 15<br/>value = [10, 5]<br/>class = Fail>, fillcolor="#e581397f"] ;
171 -> 172 ;
173 [label=<Fedu &le; 2.5<br/>gini = 0.473<br/>samples = 13<br/>value = [8, 5]<br/>class = Fail>, fillcolor="#e5813960"] ;
172 -> 173 ;
174 [label=<higher &le; 0.0<br/>gini = 0.486<br/>samples = 12<br/>value = [7, 5]<br/>class = Fail>, fillcolor="#e5813949"] ;
173 -> 174 ;
175 [label=<gini = 0.0<br/>samples = 1<br/>value = [0, 1]<br/>class = Pass>, fillcolor="#399de5ff"] ;
174 -> 175 ;
176 [label=<famrel &le; 2.0<br/>gini = 0.463<br/>samples = 11<br/>value = [7, 4]<br/>class = Fail>, fillcolor="#e581396d"] ;
174 -> 176 ;
177 [label=<gini = 0.0<br/>samples = 1<br/>value = [1, 0]<br/>class = Fail>, fillcolor="#e58139ff"] ;
176 -> 177 ;
178 [label=<famrel &le; 3.5<br/>gini = 0.48<br/>samples = 10<br/>value = [6, 4]<br/>class = Fail>, fillcolor="#e5813955"] ;
176 -> 178 ;
179 [label=<gini = 0.0<br/>samples = 1<br/>value = [0, 1]<br/>class = Pass>, fillcolor="#399de5ff"] ;
178 -> 179 ;
180 [label=<famsup &le; 0.0<br/>gini = 0.444<br/>samples = 9<br/>value = [6, 3]<br/>class = Fail>, fillcolor="#e581397f"] ;
178 -> 180 ;
181 [label=<Fedu &le; 1.5<br/>gini = 0.48<br/>samples = 5<br/>value = [3, 2]<br/>class = Fail>, fillcolor="#e5813955"] ;
180 -> 181 ;
182 [label=<gini = 0.5<br/>samples = 2<br/>value = [1, 1]<br/>class = Fail>, fillcolor="#e5813900"] ;
181 -> 182 ;
183 [label=<gini = 0.444<br/>samples = 3<br/>value = [2, 1]<br/>class = Fail>, fillcolor="#e581397f"] ;
181 -> 183 ;
184 [label=<gini = 0.375<br/>samples = 4<br/>value = [3, 1]<br/>class = Fail>, fillcolor="#e58139aa"] ;
180 -> 184 ;
185 [label=<gini = 0.0<br/>samples = 1<br/>value = [1, 0]<br/>class = Fail>, fillcolor="#e58139ff"] ;
173 -> 185 ;
186 [label=<gini = 0.0<br/>samples = 2<br/>value = [2, 0]<br/>class = Fail>, fillcolor="#e58139ff"] ;
172 -> 186 ;
187 [label=<Fedu &le; 3.5<br/>gini = 0.496<br/>samples = 35<br/>value = [16, 19]<br/>class = Pass>, fillcolor="#399de528"] ;
171 -> 187 ;
188 [label=<higher &le; 0.0<br/>gini = 0.477<br/>samples = 28<br/>value = [11, 17]<br/>class = Pass>, fillcolor="#399de55a"] ;
187 -> 188 ;
189 [label=<famsup &le; 0.0<br/>gini = 0.375<br/>samples = 4<br/>value = [3, 1]<br/>class = Fail>, fillcolor="#e58139aa"] ;
188 -> 189 ;
190 [label=<gini = 0.0<br/>samples = 3<br/>value = [3, 0]<br/>class = Fail>, fillcolor="#e58139ff"] ;
189 -> 190 ;
191 [label=<gini = 0.0<br/>samples = 1<br/>value = [0, 1]<br/>class = Pass>, fillcolor="#399de5ff"] ;
189 -> 191 ;
192 [label=<famrel &le; 4.5<br/>gini = 0.444<br/>samples = 24<br/>value = [8, 16]<br/>class = Pass>, fillcolor="#399de57f"] ;
188 -> 192 ;
193 [label=<famsup &le; 0.0<br/>gini = 0.401<br/>samples = 18<br/>value = [5, 13]<br/>class = Pass>, fillcolor="#399de59d"] ;
192 -> 193 ;
194 [label=<Fedu &le; 1.5<br/>gini = 0.219<br/>samples = 8<br/>value = [1, 7]<br/>class = Pass>, fillcolor="#399de5db"] ;
193 -> 194 ;
195 [label=<gini = 0.0<br/>samples = 2<br/>value = [0, 2]<br/>class = Pass>, fillcolor="#399de5ff"] ;
194 -> 195 ;
196 [label=<Fedu &le; 2.5<br/>gini = 0.278<br/>samples = 6<br/>value = [1, 5]<br/>class = Pass>, fillcolor="#399de5cc"] ;
194 -> 196 ;
197 [label=<Pstatus &le; 0.0<br/>gini = 0.375<br/>samples = 4<br/>value = [1, 3]<br/>class = Pass>, fillcolor="#399de5aa"] ;
196 -> 197 ;
198 [label=<gini = 0.0<br/>samples = 1<br/>value = [0, 1]<br/>class = Pass>, fillcolor="#399de5ff"] ;
197 -> 198 ;
199 [label=<famrel &le; 3.5<br/>gini = 0.444<br/>samples = 3<br/>value = [1, 2]<br/>class = Pass>, fillcolor="#399de57f"] ;
197 -> 199 ;
200 [label=<gini = 0.0<br/>samples = 1<br/>value = [0, 1]<br/>class = Pass>, fillcolor="#399de5ff"] ;
199 -> 200 ;
201 [label=<gini = 0.5<br/>samples = 2<br/>value = [1, 1]<br/>class = Fail>, fillcolor="#e5813900"] ;
199 -> 201 ;
202 [label=<gini = 0.0<br/>samples = 2<br/>value = [0, 2]<br/>class = Pass>, fillcolor="#399de5ff"] ;
196 -> 202 ;
203 [label=<Pstatus &le; 0.0<br/>gini = 0.48<br/>samples = 10<br/>value = [4, 6]<br/>class = Pass>, fillcolor="#399de555"] ;
193 -> 203 ;
204 [label=<gini = 0.0<br/>samples = 1<br/>value = [1, 0]<br/>class = Fail>, fillcolor="#e58139ff"] ;
203 -> 204 ;
205 [label=<famrel &le; 2.5<br/>gini = 0.444<br/>samples = 9<br/>value = [3, 6]<br/>class = Pass>, fillcolor="#399de57f"] ;
203 -> 205 ;
206 [label=<gini = 0.0<br/>samples = 1<br/>value = [0, 1]<br/>class = Pass>, fillcolor="#399de5ff"] ;
205 -> 206 ;
207 [label=<Medu &le; 2.5<br/>gini = 0.469<br/>samples = 8<br/>value = [3, 5]<br/>class = Pass>, fillcolor="#399de566"] ;
205 -> 207 ;
208 [label=<famrel &le; 3.5<br/>gini = 0.5<br/>samples = 2<br/>value = [1, 1]<br/>class = Fail>, fillcolor="#e5813900"] ;
207 -> 208 ;
209 [label=<gini = 0.0<br/>samples = 1<br/>value = [0, 1]<br/>class = Pass>, fillcolor="#399de5ff"] ;
208 -> 209 ;
210 [label=<gini = 0.0<br/>samples = 1<br/>value = [1, 0]<br/>class = Fail>, fillcolor="#e58139ff"] ;
208 -> 210 ;
211 [label=<famrel &le; 3.5<br/>gini = 0.444<br/>samples = 6<br/>value = [2, 4]<br/>class = Pass>, fillcolor="#399de57f"] ;
207 -> 211 ;
212 [label=<gini = 0.0<br/>samples = 1<br/>value = [1, 0]<br/>class = Fail>, fillcolor="#e58139ff"] ;
211 -> 212 ;
213 [label=<Fedu &le; 2.5<br/>gini = 0.32<br/>samples = 5<br/>value = [1, 4]<br/>class = Pass>, fillcolor="#399de5bf"] ;
211 -> 213 ;
214 [label=<gini = 0.0<br/>samples = 1<br/>value = [0, 1]<br/>class = Pass>, fillcolor="#399de5ff"] ;
213 -> 214 ;
215 [label=<gini = 0.375<br/>samples = 4<br/>value = [1, 3]<br/>class = Pass>, fillcolor="#399de5aa"] ;
213 -> 215 ;
216 [label=<Pstatus &le; 0.0<br/>gini = 0.5<br/>samples = 6<br/>value = [3, 3]<br/>class = Fail>, fillcolor="#e5813900"] ;
192 -> 216 ;
217 [label=<gini = 0.0<br/>samples = 2<br/>value = [0, 2]<br/>class = Pass>, fillcolor="#399de5ff"] ;
216 -> 217 ;
218 [label=<Medu &le; 2.5<br/>gini = 0.375<br/>samples = 4<br/>value = [3, 1]<br/>class = Fail>, fillcolor="#e58139aa"] ;
216 -> 218 ;
219 [label=<Fedu &le; 2.0<br/>gini = 0.5<br/>samples = 2<br/>value = [1, 1]<br/>class = Fail>, fillcolor="#e5813900"] ;
218 -> 219 ;
220 [label=<gini = 0.0<br/>samples = 1<br/>value = [0, 1]<br/>class = Pass>, fillcolor="#399de5ff"] ;
219 -> 220 ;
221 [label=<gini = 0.0<br/>samples = 1<br/>value = [1, 0]<br/>class = Fail>, fillcolor="#e58139ff"] ;
219 -> 221 ;
222 [label=<gini = 0.0<br/>samples = 2<br/>value = [2, 0]<br/>class = Fail>, fillcolor="#e58139ff"] ;
218 -> 222 ;
223 [label=<Medu &le; 2.5<br/>gini = 0.408<br/>samples = 7<br/>value = [5, 2]<br/>class = Fail>, fillcolor="#e5813999"] ;
187 -> 223 ;
224 [label=<gini = 0.0<br/>samples = 1<br/>value = [0, 1]<br/>class = Pass>, fillcolor="#399de5ff"] ;
223 -> 224 ;
225 [label=<famrel &le; 3.0<br/>gini = 0.278<br/>samples = 6<br/>value = [5, 1]<br/>class = Fail>, fillcolor="#e58139cc"] ;
223 -> 225 ;
226 [label=<gini = 0.0<br/>samples = 1<br/>value = [1, 0]<br/>class = Fail>, fillcolor="#e58139ff"] ;
225 -> 226 ;
227 [label=<Medu &le; 3.5<br/>gini = 0.32<br/>samples = 5<br/>value = [4, 1]<br/>class = Fail>, fillcolor="#e58139bf"] ;
225 -> 227 ;
228 [label=<gini = 0.0<br/>samples = 1<br/>value = [1, 0]<br/>class = Fail>, fillcolor="#e58139ff"] ;
227 -> 228 ;
229 [label=<gini = 0.375<br/>samples = 4<br/>value = [3, 1]<br/>class = Fail>, fillcolor="#e58139aa"] ;
227 -> 229 ;
230 [label=<famrel &le; 3.5<br/>gini = 0.334<br/>samples = 33<br/>value = [26, 7]<br/>class = Fail>, fillcolor="#e58139ba"] ;
170 -> 230 ;
231 [label=<gini = 0.0<br/>samples = 12<br/>value = [12, 0]<br/>class = Fail>, fillcolor="#e58139ff"] ;
230 -> 231 ;
232 [label=<Fedu &le; 1.5<br/>gini = 0.444<br/>samples = 21<br/>value = [14, 7]<br/>class = Fail>, fillcolor="#e581397f"] ;
230 -> 232 ;
233 [label=<famrel &le; 4.5<br/>gini = 0.5<br/>samples = 10<br/>value = [5, 5]<br/>class = Fail>, fillcolor="#e5813900"] ;
232 -> 233 ;
234 [label=<gini = 0.0<br/>samples = 4<br/>value = [0, 4]<br/>class = Pass>, fillcolor="#399de5ff"] ;
233 -> 234 ;
235 [label=<famsup &le; 0.0<br/>gini = 0.278<br/>samples = 6<br/>value = [5, 1]<br/>class = Fail>, fillcolor="#e58139cc"] ;
233 -> 235 ;
236 [label=<gini = 0.0<br/>samples = 4<br/>value = [4, 0]<br/>class = Fail>, fillcolor="#e58139ff"] ;
235 -> 236 ;
237 [label=<Medu &le; 1.5<br/>gini = 0.5<br/>samples = 2<br/>value = [1, 1]<br/>class = Fail>, fillcolor="#e5813900"] ;
235 -> 237 ;
238 [label=<gini = 0.0<br/>samples = 1<br/>value = [0, 1]<br/>class = Pass>, fillcolor="#399de5ff"] ;
237 -> 238 ;
239 [label=<gini = 0.0<br/>samples = 1<br/>value = [1, 0]<br/>class = Fail>, fillcolor="#e58139ff"] ;
237 -> 239 ;
240 [label=<Medu &le; 3.5<br/>gini = 0.298<br/>samples = 11<br/>value = [9, 2]<br/>class = Fail>, fillcolor="#e58139c6"] ;
232 -> 240 ;
241 [label=<Fedu &le; 2.5<br/>gini = 0.198<br/>samples = 9<br/>value = [8, 1]<br/>class = Fail>, fillcolor="#e58139df"] ;
240 -> 241 ;
242 [label=<gini = 0.0<br/>samples = 4<br/>value = [4, 0]<br/>class = Fail>, fillcolor="#e58139ff"] ;
241 -> 242 ;
243 [label=<failures &le; 2.5<br/>gini = 0.32<br/>samples = 5<br/>value = [4, 1]<br/>class = Fail>, fillcolor="#e58139bf"] ;
241 -> 243 ;
244 [label=<Pstatus &le; 0.0<br/>gini = 0.375<br/>samples = 4<br/>value = [3, 1]<br/>class = Fail>, fillcolor="#e58139aa"] ;
243 -> 244 ;
245 [label=<gini = 0.0<br/>samples = 1<br/>value = [1, 0]<br/>class = Fail>, fillcolor="#e58139ff"] ;
244 -> 245 ;
246 [label=<Fedu &le; 3.5<br/>gini = 0.444<br/>samples = 3<br/>value = [2, 1]<br/>class = Fail>, fillcolor="#e581397f"] ;
244 -> 246 ;
247 [label=<gini = 0.5<br/>samples = 2<br/>value = [1, 1]<br/>class = Fail>, fillcolor="#e5813900"] ;
246 -> 247 ;
248 [label=<gini = 0.0<br/>samples = 1<br/>value = [1, 0]<br/>class = Fail>, fillcolor="#e58139ff"] ;
246 -> 248 ;
249 [label=<gini = 0.0<br/>samples = 1<br/>value = [1, 0]<br/>class = Fail>, fillcolor="#e58139ff"] ;
243 -> 249 ;
250 [label=<famrel &le; 4.5<br/>gini = 0.5<br/>samples = 2<br/>value = [1, 1]<br/>class = Fail>, fillcolor="#e5813900"] ;
240 -> 250 ;
251 [label=<gini = 0.0<br/>samples = 1<br/>value = [1, 0]<br/>class = Fail>, fillcolor="#e58139ff"] ;
250 -> 251 ;
252 [label=<gini = 0.0<br/>samples = 1<br/>value = [0, 1]<br/>class = Pass>, fillcolor="#399de5ff"] ;
250 -> 252 ;
}