digraph Tree {
node [shape=box, style="filled, rounded", color="black", fontname=helvetica] ;
edge [fontname=helvetica] ;
0 [label=<failures &le; 0.5<br/>gini = 0.442<br/>samples = 395<br/>value = [130, 265]<br/>class = Pass>, fillcolor="#399de582"] ;
1 [label=<famsup &le; 0.0<br/>gini = 0.375<br/>samples = 312<br/>value = [78, 234]<br/>class = Pass>, fillcolor="#399de5aa"] ;
0 -> 1 [labeldistance=2.5, labelangle=45, headlabel="True"] ;
2 [label=<famrel &le; 2.5<br/>gini = 0.32<br/>samples = 115<br/>value = [23, 92]<br/>class = Pass>, fillcolor="#399de5bf"] ;
1 -> 2 ;
3 [label=<gini = 0.0<br/>samples = 8<br/>value = [0, 8]<br/>class = Pass>, fillcolor="#399de5ff"] ;
2 -> 3 ;
4 [label=<Medu &le; 2.5<br/>gini = 0.337<br/>samples = 107<br/>value = [23, 84]<br/>class = Pass>, fillcolor="#399de5b9"] ;
2 -> 4 ;
5 [label=<Pstatus &le; 0.0<br/>gini = 0.39<br/>samples = 49<br/>value = [13, 36]<br/>class = Pass>, fillcolor="#399de5a3"] ;
4 -> 5 ;
6 [label=<gini = 0.0<br/>samples = 3<br/>value = [0, 3]<br/>class = Pass>, fillcolor="#399de5ff"] ;
5 -> 6 ;
7 [label=<Medu &le; 0.5<br/>gini = 0.405<br/>samples = 46<br/>value = [13, 33]<br/>class = Pass>, fillcolor="#399de59b"] ;
5 -> 7 ;
8 [label=<gini = 0.0<br/>samples = 2<br/>value = [0, 2]<br/>class = Pass>, fillcolor="#399de5ff"] ;
7 -> 8 ;
9 [label=<famrel &le; 4.5<br/>gini = 0.416<br/>samples = 44<br/>value = [13, 31]<br/>class = Pass>, fillcolor="#399de594"] ;
7 -> 9 ;
10 [label=<Medu &le; 1.5<br/>gini = 0.437<br/>samples = 31<br/>value = [10, 21]<br/>class = Pass>, fillcolor="#399de586"] ;
9 -> 10 ;
11 [label=<famrel &le; 3.5<br/>gini = 0.463<br/>samples = 11<br/>value = [4, 7]<br/>class = Pass>, fillcolor="#399de56d"] ;
10 -> 11 ;
12 [label=<gini = 0.408<br/>samples = 7<br/>value = [2, 5]<br/>class = Pass>, fillcolor="#399de599"] ;
11 -> 12 ;
13 [label=<gini = 0.5<br/>samples = 4<br/>value = [2, 2]<br/>class = Fail>, fillcolor="#e5813900"] ;
11 -> 13 ;
14 [label=<famrel &le; 3.5<br/>gini = 0.42<br/>samples = 20<br/>value = [6, 14]<br/>class = Pass>, fillcolor="#399de592"] ;
10 -> 14 ;
15 [label=<gini = 0.5<br/>samples = 4<br/>value = [2, 2]<br/>class = Fail>, fillcolor="#e5813900"] ;
14 -> 15 ;
16 [label=<gini = 0.375<br/>samples = 16<br/>value = [4, 12]<br/>class = Pass>, fillcolor="#399de5aa"] ;
14 -> 16 ;
17 [label=<Medu &le; 1.5<br/>gini = 0.355<br/>samples = 13<br/>value = [3, 10]<br/>class = Pass>, fillcolor="#399de5b3"] ;
9 -> 17 ;
18 [label=<gini = 0.375<br/>samples = 4<br/>value = [1, 3]<br/>class = Pass>, fillcolor="#399de5aa"] ;
17 -> 18 ;
19 [label=<gini = 0.346<br/>samples = 9<br/>value = [2, 7]<br/>class = Pass>, fillcolor="#399de5b6"] ;
17 -> 19 ;
20 [label=<Pstatus &le; 0.0<br/>gini = 0.285<br/>samples = 58<br/>value = [10, 48]<br/>class = Pass>, fillcolor="#399de5ca"] ;
4 -> 20 ;
21 [label=<famrel &le; 4.5<br/>gini = 0.444<br/>samples = 9<br/>value = [3, 6]<br/>class = Pass>, fillcolor="#399de57f"] ;
20 -> 21 ;
22 [label=<Medu &le; 3.5<br/>gini = 0.48<br/>samples = 5<br/>value = [3, 2]<br/>class = Fail>, fillcolor="#e5813955"] ;
21 -> 22 ;
23 [label=<famrel &le; 3.5<br/>gini = 0.444<br/>samples = 3<br/>value = [1, 2]<br/>class = Pass>, fillcolor="#399de57f"] ;
22 -> 23 ;
24 [label=<gini = 0.0<br/>samples = 1<br/>value = [0, 1]<br/>class = Pass>, fillcolor="#399de5ff"] ;
23 -> 24 ;
25 [label=<gini = 0.5<br/>samples = 2<br/>value = [1, 1]<br/>class = Fail>, fillcolor="#e5813900"] ;
23 -> 25 ;
26 [label=<gini = 0.0<br/>samples = 2<br/>value = [2, 0]<br/>class = Fail>, fillcolor="#e58139ff"] ;
22 -> 26 ;
27 [label=<gini = 0.0<br/>samples = 4<br/>value = [0, 4]<br/>class = Pass>, fillcolor="#399de5ff"] ;
21 -> 27 ;
28 [label=<Medu &le; 3.5<br/>gini = 0.245<br/>samples = 49<br/>value = [7, 42]<br/>class = Pass>, fillcolor="#399de5d4"] ;
20 -> 28 ;
29 [label=<famrel &le; 3.5<br/>gini = 0.308<br/>samples = 21<br/>value = [4, 17]<br/>class = Pass>, fillcolor="#399de5c3"] ;
28 -> 29 ;
30 [label=<gini = 0.5<br/>samples = 2<br/>value = [1, 1]<br/>class = Fail>, fillcolor="#e5813900"] ;
29 -> 30 ;
31 [label=<famrel &le; 4.5<br/>gini = 0.266<br/>samples = 19<br/>value = [3, 16]<br/>class = Pass>, fillcolor="#399de5cf"] ;
29 -> 31 ;
32 [label=<gini = 0.219<br/>samples = 8<br/>value = [1, 7]<br/>class = Pass>, fillcolor="#399de5db"] ;
31 -> 32 ;
33 [label=<gini = 0.298<br/>samples = 11<br/>value = [2, 9]<br/>class = Pass>, fillcolor="#399de5c6"] ;
31 -> 33 ;
34 [label=<famrel &le; 4.5<br/>gini = 0.191<br/>samples = 28<br/>value = [3, 25]<br/>class = Pass>, fillcolor="#399de5e0"] ;
28 -> 34 ;
35 [label=<famrel &le; 3.5<br/>gini = 0.172<br/>samples = 21<br/>value = [2, 19]<br/>class = Pass>, fillcolor="#399de5e4"] ;
34 -> 35 ;
36 [label=<gini = 0.219<br/>samples = 8<br/>value = [1, 7]<br/>class = Pass>, fillcolor="#399de5db"] ;
35 -> 36 ;
37 [label=<gini = 0.142<br/>samples = 13<br/>value = [1, 12]<br/>class = Pass>, fillcolor="#399de5ea"] ;
35 -> 37 ;
38 [label=<gini = 0.245<br/>samples = 7<br/>value = [1, 6]<br/>class = Pass>, fillcolor="#399de5d4"] ;
34 -> 38 ;
39 [label=<famrel &le; 1.5<br/>gini = 0.402<br/>samples = 197<br/>value = [55, 142]<br/>class = Pass>, fillcolor="#399de59c"] ;
1 -> 39 ;
40 [label=<gini = 0.0<br/>samples = 4<br/>value = [0, 4]<br/>class = Pass>, fillcolor="#399de5ff"] ;
39 -> 40 ;
41 [label=<famrel &le; 4.5<br/>gini = 0.408<br/>samples = 193<br/>value = [55, 138]<br/>class = Pass>, fillcolor="#399de599"] ;
39 -> 41 ;
42 [label=<Medu &le; 1.5<br/>gini = 0.424<br/>samples = 141<br/>value = [43, 98]<br/>class = Pass>, fillcolor="#399de58f"] ;
41 -> 42 ;
43 [label=<famrel &le; 3.5<br/>gini = 0.32<br/>samples = 15<br/>value = [3, 12]<br/>class = Pass>, fillcolor="#399de5bf"] ;
42 -> 43 ;
44 [label=<gini = 0.375<br/>samples = 4<br/>value = [1, 3]<br/>class = Pass>, fillcolor="#399de5aa"] ;
43 -> 44 ;
45 [label=<gini = 0.298<br/>samples = 11<br/>value = [2, 9]<br/>class = Pass>, fillcolor="#399de5c6"] ;
43 -> 45 ;
46 [label=<Medu &le; 3.5<br/>gini = 0.433<br/>samples = 126<br/>value = [40, 86]<br/>class = Pass>, fillcolor="#399de588"] ;
42 -> 46 ;
47 [label=<Pstatus &le; 0.0<br/>gini = 0.457<br/>samples = 65<br/>value = [23, 42]<br/>class = Pass>, fillcolor="#399de573"] ;
46 -> 47 ;
48 [label=<famrel &le; 3.5<br/>gini = 0.245<br/>samples = 7<br/>value = [1, 6]<br/>class = Pass>, fillcolor="#399de5d4"] ;
47 -> 48 ;
49 [label=<famrel &le; 2.5<br/>gini = 0.444<br/>samples = 3<br/>value = [1, 2]<br/>class = Pass>, fillcolor="#399de57f"] ;
48 -> 49 ;
50 [label=<gini = 0.0<br/>samples = 1<br/>value = [0, 1]<br/>class = Pass>, fillcolor="#399de5ff"] ;
49 -> 50 ;
51 [label=<Medu &le; 2.5<br/>gini = 0.5<br/>samples = 2<br/>value = [1, 1]<br/>class = Fail>, fillcolor="#e5813900"] ;
49 -> 51 ;
52 [label=<gini = 0.0<br/>samples = 1<br/>value = [0, 1]<br/>class = Pass>, fillcolor="#399de5ff"] ;
51 -> 52 ;
53 [label=<gini = 0.0<br/>samples = 1<br/>value = [1, 0]<br/>class = Fail>, fillcolor="#e58139ff"] ;
51 -> 53 ;
54 [label=<gini = 0.0<br/>samples = 4<br/>value = [0, 4]<br/>class = Pass>, fillcolor="#399de5ff"] ;
48 -> 54 ;
55 [label=<famrel &le; 2.5<br/>gini = 0.471<br/>samples = 58<br/>value = [22, 36]<br/>class = Pass>, fillcolor="#399de563"] ;
47 -> 55 ;
56 [label=<gini = 0.0<br/>samples = 1<br/>value = [1, 0]<br/>class = Fail>, fillcolor="#e58139ff"] ;
55 -> 56 ;
57 [label=<famrel &le; 3.5<br/>gini = 0.465<br/>samples = 57<br/>value = [21, 36]<br/>class = Pass>, fillcolor="#399de56a"] ;
55 -> 57 ;
58 [label=<Medu &le; 2.5<br/>gini = 0.397<br/>samples = 11<br/>value = [3, 8]<br/>class = Pass>, fillcolor="#399de59f"] ;
57 -> 58 ;
59 [label=<gini = 0.408<br/>samples = 7<br/>value = [2, 5]<br/>class = Pass>, fillcolor="#399de599"] ;
58 -> 59 ;
60 [label=<gini = 0.375<br/>samples = 4<br/>value = [1, 3]<br/>class = Pass>, fillcolor="#399de5aa"] ;
58 -> 60 ;
61 [label=<Medu &le; 2.5<br/>gini = 0.476<br/>samples = 46<br/>value = [18, 28]<br/>class = Pass>, fillcolor="#399de55b"] ;
57 -> 61 ;
62 [label=<gini = 0.473<br/>samples = 26<br/>value = [10, 16]<br/>class = Pass>, fillcolor="#399de560"] ;
61 -> 62 ;
63 [label=<gini = 0.48<br/>samples = 20<br/>value = [8, 12]<br/>class = Pass>, fillcolor="#399de555"] ;
61 -> 63 ;
64 [label=<famrel &le; 2.5<br/>gini = 0.402<br/>samples = 61<br/>value = [17, 44]<br/>class = Pass>, fillcolor="#399de59c"] ;
46 -> 64 ;
65 [label=<Pstatus &le; 0.0<br/>gini = 0.48<br/>samples = 5<br/>value = [2, 3]<br/>class = Pass>, fillcolor="#399de555"] ;
64 -> 65 ;
66 [label=<gini = 0.0<br/>samples = 1<br/>value = [0, 1]<br/>class = Pass>, fillcolor="#399de5ff"] ;
65 -> 66 ;
67 [label=<gini = 0.5<br/>samples = 4<br/>value = [2, 2]<br/>class = Fail>, fillcolor="#e5813900"] ;
65 -> 67 ;
68 [label=<Pstatus &le; 0.0<br/>gini = 0.392<br/>samples = 56<br/>value = [15, 41]<br/>class = Pass>, fillcolor="#399de5a2"] ;
64 -> 68 ;
69 [label=<famrel &le; 3.5<br/>gini = 0.444<br/>samples = 6<br/>value = [2, 4]<br/>class = Pass>, fillcolor="#399de57f"] ;
68 -> 69 ;
70 [label=<gini = 0.0<br/>samples = 1<br/>value = [0, 1]<br/>class = Pass>, fillcolor="#399de5ff"] ;
69 -> 70 ;
71 [label=<gini = 0.48<br/>samples = 5<br/>value = [2, 3]<br/>class = Pass>, fillcolor="#399de555"] ;
69 -> 71 ;
72 [label=<famrel &le; 3.5<br/>gini = 0.385<br/>samples = 50<br/>value = [13, 37]<br/>class = Pass>, fillcolor="#399de5a5"] ;
68 -> 72 ;
73 [label=<gini = 0.444<br/>samples = 12<br/>value = [4, 8]<br/>class = Pass>, fillcolor="#399de57f"] ;
72 -> 73 ;
74 [label=<gini = 0.361<br/>samples = 38<br/>value = [9, 29]<br/>class = Pass>, fillcolor="#399de5b0"] ;
72 -> 74 ;
75 [label=<Medu &le; 2.5<br/>gini = 0.355<br/>samples = 52<br/>value = [12, 40]<br/>class = Pass>, fillcolor="#399de5b3"] ;
41 -> 75 ;
76 [label=<Medu &le; 1.5<br/>gini = 0.43<br/>samples = 16<br/>value = [5, 11]<br/>class = Pass>, fillcolor="#399de58b"] ;
75 -> 76 ;
77 [label=<gini = 0.444<br/>samples = 3<br/>value = [1, 2]<br/>class = Pass>, fillcolor="#399de57f"] ;
76 -> 77 ;
78 [label=<gini = 0.426<br/>samples = 13<br/>value = [4, 9]<br/>class = Pass>, fillcolor="#399de58e"] ;
76 -> 78 ;
79 [label=<Medu &le; 3.5<br/>gini = 0.313<br/>samples = 36<br/>value = [7, 29]<br/>class = Pass>, fillcolor="#399de5c1"] ;
75 -> 79 ;
80 [label=<Pstatus &le; 0.0<br/>gini = 0.355<br/>samples = 13<br/>value = [3, 10]<br/>class = Pass>, fillcolor="#399de5b3"] ;
79 -> 80 ;
81 [label=<gini = 0.0<br/>samples = 2<br/>value = [0, 2]<br/>class = Pass>, fillcolor="#399de5ff"] ;
80 -> 81 ;
82 [label=<gini = 0.397<br/>samples = 11<br/>value = [3, 8]<br/>class = Pass>, fillcolor="#399de59f"] ;
80 -> 82 ;
83 [label=<Pstatus &le; 0.0<br/>gini = 0.287<br/>samples = 23<br/>value = [4, 19]<br/>class = Pass>, fillcolor="#399de5c9"] ;
79 -> 83 ;
84 [label=<gini = 0.444<br/>samples = 3<br/>value = [1, 2]<br/>class = Pass>, fillcolor="#399de57f"] ;
83 -> 84 ;
85 [label=<gini = 0.255<br/>samples = 20<br/>value = [3, 17]<br/>class = Pass>, fillcolor="#399de5d2"] ;
83 -> 85 ;
86 [label=<failures &le; 1.5<br/>gini = 0.468<br/>samples = 83<br/>value = [52, 31]<br/>class = Fail>, fillcolor="#e5813967"] ;
0 -> 86 [labeldistance=2.5, labelangle=-45, headlabel="False"] ;
87 [label=<Medu &le; 1.5<br/>gini = 0.499<br/>samples = 50<br/>value = [26, 24]<br/>class = Fail>, fillcolor="#e5813914"] ;
86 -> 87 ;
88 [label=<famrel &le; 4.5<br/>gini = 0.444<br/>samples = 15<br/>value = [10, 5]<br/>class = Fail>, fillcolor="#e581397f"] ;
87 -> 88 ;
89 [label=<famrel &le; 2.0<br/>gini = 0.473<br/>samples = 13<br/>value = [8, 5]<br/>class = Fail>, fillcolor="#e5813960"] ;
88 -> 89 ;
90 [label=<gini = 0.0<br/>samples = 1<br/>value = [1, 0]<br/>class = Fail>, fillcolor="#e58139ff"] ;
89 -> 90 ;
91 [label=<famrel &le; 3.5<br/>gini = 0.486<br/>samples = 12<br/>value = [7, 5]<br/>class = Fail>, fillcolor="#e5813949"] ;
89 -> 91 ;
92 [label=<gini = 0.0<br/>samples = 1<br/>value = [0, 1]<br/>class = Pass>, fillcolor="#399de5ff"] ;
91 -> 92 ;
93 [label=<famsup &le; 0.0<br/>gini = 0.463<br/>samples = 11<br/>value = [7, 4]<br/>class = Fail>, fillcolor="#e581396d"] ;
91 -> 93 ;
94 [label=<gini = 0.49<br/>samples = 7<br/>value = [4, 3]<br/>class = Fail>, fillcolor="#e5813940"] ;
93 -> 94 ;
95 [label=<gini = 0.375<br/>samples = 4<br/>value = [3, 1]<br/>class = Fail>, fillcolor="#e58139aa"] ;
93 -> 95 ;
96 [label=<gini = 0.0<br/>samples = 2<br/>value = [2, 0]<br/>class = Fail>, fillcolor="#e58139ff"] ;
88 -> 96 ;
97 [label=<Medu &le; 3.5<br/>gini = 0.496<br/>samples = 35<br/>value = [16, 19]<br/>class = Pass>, fillcolor="#399de528"] ;
87 -> 97 ;
98 [label=<famrel &le; 4.5<br/>gini = 0.477<br/>samples = 28<br/>value = [11, 17]<br/>class = Pass>, fillcolor="#399de55a"] ;
97 -> 98 ;
99 [label=<famrel &le; 3.5<br/>gini = 0.454<br/>samples = 23<br/>value = [8, 15]<br/>class = Pass>, fillcolor="#399de577"] ;
98 -> 99 ;
100 [label=<Pstatus &le; 0.0<br/>gini = 0.5<br/>samples = 6<br/>value = [3, 3]<br/>class = Fail>, fillcolor="#e5813900"] ;
99 -> 100 ;
101 [label=<gini = 0.0<br/>samples = 1<br/>value = [1, 0]<br/>class = Fail>, fillcolor="#e58139ff"] ;
100 -> 101 ;
102 [label=<famrel &le; 2.5<br/>gini = 0.48<br/>samples = 5<br/>value = [2, 3]<br/>class = Pass>, fillcolor="#399de555"] ;
100 -> 102 ;
103 [label=<gini = 0.0<br/>samples = 1<br/>value = [0, 1]<br/>class = Pass>, fillcolor="#399de5ff"] ;
102 -> 103 ;
104 [label=<Medu &le; 2.5<br/>gini = 0.5<br/>samples = 4<br/>value = [2, 2]<br/>class = Fail>, fillcolor="#e5813900"] ;
102 -> 104 ;
105 [label=<famsup &le; 0.0<br/>gini = 0.444<br/>samples = 3<br/>value = [1, 2]<br/>class = Pass>, fillcolor="#399de57f"] ;
104 -> 105 ;
106 [label=<gini = 0.5<br/>samples = 2<br/>value = [1, 1]<br/>class = Fail>, fillcolor="#e5813900"] ;
105 -> 106 ;
107 [label=<gini = 0.0<br/>samples = 1<br/>value = [0, 1]<br/>class = Pass>, fillcolor="#399de5ff"] ;
105 -> 107 ;
108 [label=<gini = 0.0<br/>samples = 1<br/>value = [1, 0]<br/>class = Fail>, fillcolor="#e58139ff"] ;
104 -> 108 ;
109 [label=<Pstatus &le; 0.0<br/>gini = 0.415<br/>samples = 17<br/>value = [5, 12]<br/>class = Pass>, fillcolor="#399de595"] ;
99 -> 109 ;
110 [label=<gini = 0.0<br/>samples = 1<br/>value = [0, 1]<br/>class = Pass>, fillcolor="#399de5ff"] ;
109 -> 110 ;
111 [label=<famsup &le; 0.0<br/>gini = 0.43<br/>samples = 16<br/>value = [5, 11]<br/>class = Pass>, fillcolor="#399de58b"] ;
109 -> 111 ;
112 [label=<Medu &le; 2.5<br/>gini = 0.408<br/>samples = 7<br/>value = [2, 5]<br/>class = Pass>, fillcolor="#399de599"] ;
111 -> 112 ;
113 [label=<gini = 0.32<br/>samples = 5<br/>value = [1, 4]<br/>class = Pass>, fillcolor="#399de5bf"] ;
112 -> 113 ;
114 [label=<gini = 0.5<br/>samples = 2<br/>value = [1, 1]<br/>class = Fail>, fillcolor="#e5813900"] ;
112 -> 114 ;
115 [label=<Medu &le; 2.5<br/>gini = 0.444<br/>samples = 9<br/>value = [3, 6]<br/>class = Pass>, fillcolor="#399de57f"] ;
111 -> 115 ;
116 [label=<gini = 0.5<br/>samples = 2<br/>value = [1, 1]<br/>class = Fail>, fillcolor="#e5813900"] ;
115 -> 116 ;
117 [label=<gini = 0.408<br/>samples = 7<br/>value = [2, 5]<br/>class = Pass>, fillcolor="#399de599"] ;
115 -> 117 ;
118 [label=<Pstatus &le; 0.0<br/>gini = 0.48<br/>samples = 5<br/>value = [3, 2]<br/>class = Fail>, fillcolor="#e5813955"] ;
98 -> 118 ;
119 [label=<gini = 0.0<br/>samples = 1<br/>value = [0, 1]<br/>class = Pass>, fillcolor="#399de5ff"] ;
118 -> 119 ;
120 [label=<Medu &le; 2.5<br/>gini = 0.375<br/>samples = 4<br/>value = [3, 1]<br/>class = Fail>, fillcolor="#e58139aa"] ;
118 -> 120 ;
121 [label=<gini = 0.444<br/>samples = 3<br/>value = [2, 1]<br/>class = Fail>, fillcolor="#e581397f"] ;
120 -> 121 ;
122 [label=<gini = 0.0<br/>samples = 1<br/>value = [1, 0]<br/>class = Fail>, fillcolor="#e58139ff"] ;
120 -> 122 ;
123 [label=<Pstatus &le; 0.0<br/>gini = 0.408<br/>samples = 7<br/>value = [5, 2]<br/>class = Fail>, fillcolor="#e5813999"] ;
97 -> 123 ;
124 [label=<gini = 0.0<br/>samples = 1<br/>value = [0, 1]<br/>class = Pass>, fillcolor="#399de5ff"] ;
123 -> 124 ;
125 [label=<famrel &le; 3.0<br/>gini = 0.278<br/>samples = 6<br/>value = [5, 1]<br/>class = Fail>, fillcolor="#e58139cc"] ;
123 -> 125 ;
126 [label=<gini = 0.0<br/>samples = 1<br/>value = [1, 0]<br/>class = Fail>, fillcolor="#e58139ff"] ;
125 -> 126 ;
127 [label=<famsup &le; 0.0<br/>gini = 0.32<br/>samples = 5<br/>value = [4, 1]<br/>class = Fail>, fillcolor="#e58139bf"] ;
125 -> 127 ;
128 [label=<gini = 0.0<br/>samples = 1<br/>value = [1, 0]<br/>class = Fail>, fillcolor="#e58139ff"] ;
127 -> 128 ;
129 [label=<gini = 0.375<br/>samples = 4<br/>value = [3, 1]<br/>class = Fail>, fillcolor="#e58139aa"] ;
127 -> 129 ;
130 [label=<famrel &le; 3.5<br/>gini = 0.334<br/>samples = 33<br/>value = [26, 7]<br/>class = Fail>, fillcolor="#e58139ba"] ;
86 -> 130 ;
131 [label=<gini = 0.0<br/>samples = 12<br/>value = [12, 0]<br/>class = Fail>, fillcolor="#e58139ff"] ;
130 -> 131 ;
132 [label=<Medu &le; 2.5<br/>gini = 0.444<br/>samples = 21<br/>value = [14, 7]<br/>class = Fail>, fillcolor="#e581397f"] ;
130 -> 132 ;
133 [label=<famrel &le; 4.5<br/>gini = 0.496<br/>samples = 11<br/>value = [6, 5]<br/>class = Fail>, fillcolor="#e581392a"] ;
132 -> 133 ;
134 [label=<Medu &le; 1.5<br/>gini = 0.32<br/>samples = 5<br/>value = [1, 4]<br/>class = Pass>, fillcolor="#399de5bf"] ;
133 -> 134 ;
135 [label=<failures &le; 2.5<br/>gini = 0.444<br/>samples = 3<br/>value = [1, 2]<br/>class = Pass>, fillcolor="#399de57f"] ;
134 -> 135 ;
136 [label=<gini = 0.0<br/>samples = 1<br/>value = [0, 1]<br/>class = Pass>, fillcolor="#399de5ff"] ;
135 -> 136 ;
137 [label=<gini = 0.5<br/>samples = 2<br/>value = [1, 1]<br/>class = Fail>, fillcolor="#e5813900"] ;
135 -> 137 ;
138 [label=<gini = 0.0<br/>samples = 2<br/>value = [0, 2]<br/>class = Pass>, fillcolor="#399de5ff"] ;
134 -> 138 ;
139 [label=<famsup &le; 0.0<br/>gini = 0.278<br/>samples = 6<br/>value = [5, 1]<br/>class = Fail>, fillcolor="#e58139cc"] ;
133 -> 139 ;
140 [label=<gini = 0.0<br/>samples = 3<br/>value = [3, 0]<br/>class = Fail>, fillcolor="#e58139ff"] ;
139 -> 140 ;
141 [label=<Medu &le; 1.5<br/>gini = 0.444<br/>samples = 3<br/>value = [2, 1]<br/>class = Fail>, fillcolor="#e581397f"] ;
139 -> 141 ;
142 [label=<gini = 0.0<br/>samples = 1<br/>value = [0, 1]<br/>class = Pass>, fillcolor="#399de5ff"] ;
141 -> 142 ;
143 [label=<gini = 0.0<br/>samples = 2<br/>value = [2, 0]<br/>class = Fail>, fillcolor="#e58139ff"] ;
141 -> 143 ;
144 [label=<Medu &le; 3.5<br/>gini = 0.32<br/>samples = 10<br/>value = [8, 2]<br/>class = Fail>, fillcolor="#e58139bf"] ;
132 -> 144 ;
145 [label=<failures &le; 2.5<br/>gini = 0.219<br/>samples = 8<br/>value = [7, 1]<br/>class = Fail>, fillcolor="#e58139db"] ;
144 -> 145 ;
146 [label=<Pstatus &le; 0.0<br/>gini = 0.32<br/>samples = 5<br/>value = [4, 1]<br/>class = Fail>, fillcolor="#e58139bf"] ;
145 -> 146 ;
147 [label=<gini = 0.0<br/>samples = 1<br/>value = [1, 0]<br/>class = Fail>, fillcolor="#e58139ff"] ;
146 -> 147 ;
148 [label=<gini = 0.375<br/>samples = 4<br/>value = [3, 1]<br/>class = Fail>, fillcolor="#e58139aa"] ;
146 -> 148 ;
149 [label=<gini = 0.0<br/>samples = 3<br/>value = [3, 0]<br/>class = Fail>, fillcolor="#e58139ff"] ;
145 -> 149 ;
150 [label=<famrel &le; 4.5<br/>gini = 0.5<br/>samples = 2<br/>value = [1, 1]<br/>class = Fail>, fillcolor="#e5813900"] ;
144 -> 150 ;
151 [label=<gini = 0.0<br/>samples = 1<br/>value = [1, 0]<br/>class = Fail>, fillcolor="#e58139ff"] ;
150 -> 151 ;
152 [label=<gini = 0.0<br/>samples = 1<br/>value = [0, 1]<br/>class = Pass>, fillcolor="#399de5ff"] ;
150 -> 152 ;
}