digraph Tree {
node [shape=box, style="filled, rounded", color="black", fontname=helvetica] ;
edge [fontname=helvetica] ;
0 [label=<failures &le; 0.5<br/>gini = 0.261<br/>samples = 649<br/>value = [100, 549]<br/>class = Pass>, fillcolor="#399de5d1"] ;
1 [label=<Fedu &le; 1.5<br/>gini = 0.169<br/>samples = 549<br/>value = [51, 498]<br/>class = Pass>, fillcolor="#399de5e5"] ;
0 -> 1 [labeldistance=2.5, labelangle=45, headlabel="True"] ;
2 [label=<famrel &le; 1.5<br/>gini = 0.286<br/>samples = 139<br/>value = [24, 115]<br/>class = Pass>, fillcolor="#399de5ca"] ;
1 -> 2 ;
3 [label=<Pstatus &le; 0.0<br/>gini = 0.5<br/>samples = 6<br/>value = [3, 3]<br/>class = Fail>, fillcolor="#e5813900"] ;
2 -> 3 ;
4 [label=<gini = 0.0<br/>samples = 1<br/>value = [1, 0]<br/>class = Fail>, fillcolor="#e58139ff"] ;
3 -> 4 ;
5 [label=<famsup &le; 0.0<br/>gini = 0.48<br/>samples = 5<br/>value = [2, 3]<br/>class = Pass>, fillcolor="#399de555"] ;
3 -> 5 ;
6 [label=<Medu &le; 1.5<br/>gini = 0.444<br/>samples = 3<br/>value = [2, 1]<br/>class = Fail>, fillcolor="#e581397f"] ;
5 -> 6 ;
7 [label=<gini = 0.5<br/>samples = 2<br/>value = [1, 1]<br/>class = Fail>, fillcolor="#e5813900"] ;
6 -> 7 ;
8 [label=<gini = 0.0<br/>samples = 1<br/>value = [1, 0]<br/>class = Fail>, fillcolor="#e58139ff"] ;
6 -> 8 ;
9 [label=<gini = 0.0<br/>samples = 2<br/>value = [0, 2]<br/>class = Pass>, fillcolor="#399de5ff"] ;
5 -> 9 ;
10 [label=<famrel &le; 4.5<br/>gini = 0.266<br/>samples = 133<br/>value = [21, 112]<br/>class = Pass>, fillcolor="#399de5cf"] ;
2 -> 10 ;
11 [label=<Medu &le; 2.5<br/>gini = 0.199<br/>samples = 98<br/>value = [11, 87]<br/>class = Pass>, fillcolor="#399de5df"] ;
10 -> 11 ;
12 [label=<Pstatus &le; 0.0<br/>gini = 0.162<br/>samples = 79<br/>value = [7, 72]<br/>class = Pass>, fillcolor="#399de5e6"] ;
11 -> 12 ;
13 [label=<gini = 0.0<br/>samples = 9<br/>value = [0, 9]<br/>class = Pass>, fillcolor="#399de5ff"] ;
12 -> 13 ;
14 [label=<famsup &le; 0.0<br/>gini = 0.18<br/>samples = 70<br/>value = [7, 63]<br/>class = Pass>, fillcolor="#399de5e3"] ;
12 -> 14 ;
15 [label=<famrel &le; 3.5<br/>gini = 0.231<br/>samples = 30<br/>value = [4, 26]<br/>class = Pass>, fillcolor="#399de5d8"] ;
14 -> 15 ;
16 [label=<gini = 0.0<br/>samples = 10<br/>value = [0, 10]<br/>class = Pass>, fillcolor="#399de5ff"] ;
15 -> 16 ;
17 [label=<Medu &le; 1.5<br/>gini = 0.32<br/>samples = 20<br/>value = [4, 16]<br/>class = Pass>, fillcolor="#399de5bf"] ;
15 -> 17 ;
18 [label=<gini = 0.298<br/>samples = 11<br/>value = [2, 9]<br/>class = Pass>, fillcolor="#399de5c6"] ;
17 -> 18 ;
19 [label=<gini = 0.346<br/>samples = 9<br/>value = [2, 7]<br/>class = Pass>, fillcolor="#399de5b6"] ;
17 -> 19 ;
20 [label=<famrel &le; 3.5<br/>gini = 0.139<br/>samples = 40<br/>value = [3, 37]<br/>class = Pass>, fillcolor="#399de5ea"] ;
14 -> 20 ;
21 [label=<famrel &le; 2.5<br/>gini = 0.245<br/>samples = 7<br/>value = [1, 6]<br/>class = Pass>, fillcolor="#399de5d4"] ;
20 -> 21 ;
22 [label=<gini = 0.0<br/>samples = 2<br/>value = [0, 2]<br/>class = Pass>, fillcolor="#399de5ff"] ;
21 -> 22 ;
23 [label=<gini = 0.32<br/>samples = 5<br/>value = [1, 4]<br/>class = Pass>, fillcolor="#399de5bf"] ;
21 -> 23 ;
24 [label=<Medu &le; 1.5<br/>gini = 0.114<br/>samples = 33<br/>value = [2, 31]<br/>class = Pass>, fillcolor="#399de5ef"] ;
20 -> 24 ;
25 [label=<Fedu &le; 0.5<br/>gini = 0.08<br/>samples = 24<br/>value = [1, 23]<br/>class = Pass>, fillcolor="#399de5f4"] ;
24 -> 25 ;
26 [label=<gini = 0.0<br/>samples = 2<br/>value = [0, 2]<br/>class = Pass>, fillcolor="#399de5ff"] ;
25 -> 26 ;
27 [label=<gini = 0.087<br/>samples = 22<br/>value = [1, 21]<br/>class = Pass>, fillcolor="#399de5f3"] ;
25 -> 27 ;
28 [label=<gini = 0.198<br/>samples = 9<br/>value = [1, 8]<br/>class = Pass>, fillcolor="#399de5df"] ;
24 -> 28 ;
29 [label=<famrel &le; 2.5<br/>gini = 0.332<br/>samples = 19<br/>value = [4, 15]<br/>class = Pass>, fillcolor="#399de5bb"] ;
11 -> 29 ;
30 [label=<gini = 0.0<br/>samples = 2<br/>value = [0, 2]<br/>class = Pass>, fillcolor="#399de5ff"] ;
29 -> 30 ;
31 [label=<Pstatus &le; 0.0<br/>gini = 0.36<br/>samples = 17<br/>value = [4, 13]<br/>class = Pass>, fillcolor="#399de5b1"] ;
29 -> 31 ;
32 [label=<famsup &le; 0.0<br/>gini = 0.5<br/>samples = 2<br/>value = [1, 1]<br/>class = Fail>, fillcolor="#e5813900"] ;
31 -> 32 ;
33 [label=<gini = 0.0<br/>samples = 1<br/>value = [0, 1]<br/>class = Pass>, fillcolor="#399de5ff"] ;
32 -> 33 ;
34 [label=<gini = 0.0<br/>samples = 1<br/>value = [1, 0]<br/>class = Fail>, fillcolor="#e58139ff"] ;
32 -> 34 ;
35 [label=<famrel &le; 3.5<br/>gini = 0.32<br/>samples = 15<br/>value = [3, 12]<br/>class = Pass>, fillcolor="#399de5bf"] ;
31 -> 35 ;
36 [label=<Medu &le; 3.5<br/>gini = 0.375<br/>samples = 8<br/>value = [2, 6]<br/>class = Pass>, fillcolor="#399de5aa"] ;
35 -> 36 ;
37 [label=<famsup &le; 0.0<br/>gini = 0.278<br/>samples = 6<br/>value = [1, 5]<br/>class = Pass>, fillcolor="#399de5cc"] ;
36 -> 37 ;
38 [label=<gini = 0.5<br/>samples = 2<br/>value = [1, 1]<br/>class = Fail>, fillcolor="#e5813900"] ;
37 -> 38 ;
39 [label=<gini = 0.0<br/>samples = 4<br/>value = [0, 4]<br/>class = Pass>, fillcolor="#399de5ff"] ;
37 -> 39 ;
40 [label=<famsup &le; 0.0<br/>gini = 0.5<br/>samples = 2<br/>value = [1, 1]<br/>class = Fail>, fillcolor="#e5813900"] ;
36 -> 40 ;
41 [label=<gini = 0.0<br/>samples = 1<br/>value = [0, 1]<br/>class = Pass>, fillcolor="#399de5ff"] ;
40 -> 41 ;
42 [label=<gini = 0.0<br/>samples = 1<br/>value = [1, 0]<br/>class = Fail>, fillcolor="#e58139ff"] ;
40 -> 42 ;
43 [label=<Medu &le; 3.5<br/>gini = 0.245<br/>samples = 7<br/>value = [1, 6]<br/>class = Pass>, fillcolor="#399de5d4"] ;
35 -> 43 ;
44 [label=<gini = 0.32<br/>samples = 5<br/>value = [1, 4]<br/>class = Pass>, fillcolor="#399de5bf"] ;
43 -> 44 ;
45 [label=<gini = 0.0<br/>samples = 2<br/>value = [0, 2]<br/>class = Pass>, fillcolor="#399de5ff"] ;
43 -> 45 ;
46 [label=<Pstatus &le; 0.0<br/>gini = 0.408<br/>samples = 35<br/>value = [10, 25]<br/>class = Pass>, fillcolor="#399de599"] ;
10 -> 46 ;
47 [label=<gini = 0.0<br/>samples = 4<br/>value = [0, 4]<br/>class = Pass>, fillcolor="#399de5ff"] ;
46 -> 47 ;
48 [label=<Medu &le; 1.5<br/>gini = 0.437<br/>samples = 31<br/>value = [10, 21]<br/>class = Pass>, fillcolor="#399de586"] ;
46 -> 48 ;
49 [label=<famsup &le; 0.0<br/>gini = 0.391<br/>samples = 15<br/>value = [4, 11]<br/>class = Pass>, fillcolor="#399de5a2"] ;
48 -> 49 ;
50 [label=<gini = 0.32<br/>samples = 5<br/>value = [1, 4]<br/>class = Pass>, fillcolor="#399de5bf"] ;
49 -> 50 ;
51 [label=<gini = 0.42<br/>samples = 10<br/>value = [3, 7]<br/>class = Pass>, fillcolor="#399de592"] ;
49 -> 51 ;
52 [label=<Medu &le; 3.5<br/>gini = 0.469<br/>samples = 16<br/>value = [6, 10]<br/>class = Pass>, fillcolor="#399de566"] ;
48 -> 52 ;
53 [label=<famsup &le; 0.0<br/>gini = 0.459<br/>samples = 14<br/>value = [5, 9]<br/>class = Pass>, fillcolor="#399de571"] ;
52 -> 53 ;
54 [label=<Medu &le; 2.5<br/>gini = 0.469<br/>samples = 8<br/>value = [3, 5]<br/>class = Pass>, fillcolor="#399de566"] ;
53 -> 54 ;
55 [label=<gini = 0.48<br/>samples = 5<br/>value = [2, 3]<br/>class = Pass>, fillcolor="#399de555"] ;
54 -> 55 ;
56 [label=<gini = 0.444<br/>samples = 3<br/>value = [1, 2]<br/>class = Pass>, fillcolor="#399de57f"] ;
54 -> 56 ;
57 [label=<gini = 0.444<br/>samples = 6<br/>value = [2, 4]<br/>class = Pass>, fillcolor="#399de57f"] ;
53 -> 57 ;
58 [label=<gini = 0.5<br/>samples = 2<br/>value = [1, 1]<br/>class = Fail>, fillcolor="#e5813900"] ;
52 -> 58 ;
59 [label=<famsup &le; 0.0<br/>gini = 0.123<br/>samples = 410<br/>value = [27, 383]<br/>class = Pass>, fillcolor="#399de5ed"] ;
1 -> 59 ;
60 [label=<Fedu &le; 3.5<br/>gini = 0.16<br/>samples = 148<br/>value = [13, 135]<br/>class = Pass>, fillcolor="#399de5e6"] ;
59 -> 60 ;
61 [label=<Pstatus &le; 0.0<br/>gini = 0.185<br/>samples = 116<br/>value = [12, 104]<br/>class = Pass>, fillcolor="#399de5e2"] ;
60 -> 61 ;
62 [label=<Medu &le; 3.5<br/>gini = 0.355<br/>samples = 13<br/>value = [3, 10]<br/>class = Pass>, fillcolor="#399de5b3"] ;
61 -> 62 ;
63 [label=<famrel &le; 2.0<br/>gini = 0.165<br/>samples = 11<br/>value = [1, 10]<br/>class = Pass>, fillcolor="#399de5e6"] ;
62 -> 63 ;
64 [label=<Fedu &le; 2.5<br/>gini = 0.444<br/>samples = 3<br/>value = [1, 2]<br/>class = Pass>, fillcolor="#399de57f"] ;
63 -> 64 ;
65 [label=<gini = 0.0<br/>samples = 2<br/>value = [0, 2]<br/>class = Pass>, fillcolor="#399de5ff"] ;
64 -> 65 ;
66 [label=<gini = 0.0<br/>samples = 1<br/>value = [1, 0]<br/>class = Fail>, fillcolor="#e58139ff"] ;
64 -> 66 ;
67 [label=<gini = 0.0<br/>samples = 8<br/>value = [0, 8]<br/>class = Pass>, fillcolor="#399de5ff"] ;
63 -> 67 ;
68 [label=<gini = 0.0<br/>samples = 2<br/>value = [2, 0]<br/>class = Fail>, fillcolor="#e58139ff"] ;
62 -> 68 ;
69 [label=<Medu &le; 3.5<br/>gini = 0.159<br/>samples = 103<br/>value = [9, 94]<br/>class = Pass>, fillcolor="#399de5e7"] ;
61 -> 69 ;
70 [label=<famrel &le; 4.5<br/>gini = 0.195<br/>samples = 82<br/>value = [9, 73]<br/>class = Pass>, fillcolor="#399de5e0"] ;
69 -> 70 ;
71 [label=<Medu &le; 1.5<br/>gini = 0.229<br/>samples = 53<br/>value = [7, 46]<br/>class = Pass>, fillcolor="#399de5d8"] ;
70 -> 71 ;
72 [label=<Fedu &le; 2.5<br/>gini = 0.305<br/>samples = 16<br/>value = [3, 13]<br/>class = Pass>, fillcolor="#399de5c4"] ;
71 -> 72 ;
73 [label=<Medu &le; 0.5<br/>gini = 0.245<br/>samples = 14<br/>value = [2, 12]<br/>class = Pass>, fillcolor="#399de5d4"] ;
72 -> 73 ;
74 [label=<gini = 0.0<br/>samples = 2<br/>value = [0, 2]<br/>class = Pass>, fillcolor="#399de5ff"] ;
73 -> 74 ;
75 [label=<famrel &le; 2.5<br/>gini = 0.278<br/>samples = 12<br/>value = [2, 10]<br/>class = Pass>, fillcolor="#399de5cc"] ;
73 -> 75 ;
76 [label=<gini = 0.0<br/>samples = 1<br/>value = [0, 1]<br/>class = Pass>, fillcolor="#399de5ff"] ;
75 -> 76 ;
77 [label=<famrel &le; 3.5<br/>gini = 0.298<br/>samples = 11<br/>value = [2, 9]<br/>class = Pass>, fillcolor="#399de5c6"] ;
75 -> 77 ;
78 [label=<gini = 0.32<br/>samples = 5<br/>value = [1, 4]<br/>class = Pass>, fillcolor="#399de5bf"] ;
77 -> 78 ;
79 [label=<gini = 0.278<br/>samples = 6<br/>value = [1, 5]<br/>class = Pass>, fillcolor="#399de5cc"] ;
77 -> 79 ;
80 [label=<gini = 0.5<br/>samples = 2<br/>value = [1, 1]<br/>class = Fail>, fillcolor="#e5813900"] ;
72 -> 80 ;
81 [label=<Fedu &le; 2.5<br/>gini = 0.193<br/>samples = 37<br/>value = [4, 33]<br/>class = Pass>, fillcolor="#399de5e0"] ;
71 -> 81 ;
82 [label=<Medu &le; 2.5<br/>gini = 0.236<br/>samples = 22<br/>value = [3, 19]<br/>class = Pass>, fillcolor="#399de5d7"] ;
81 -> 82 ;
83 [label=<famrel &le; 3.5<br/>gini = 0.117<br/>samples = 16<br/>value = [1, 15]<br/>class = Pass>, fillcolor="#399de5ee"] ;
82 -> 83 ;
84 [label=<gini = 0.0<br/>samples = 4<br/>value = [0, 4]<br/>class = Pass>, fillcolor="#399de5ff"] ;
83 -> 84 ;
85 [label=<gini = 0.153<br/>samples = 12<br/>value = [1, 11]<br/>class = Pass>, fillcolor="#399de5e8"] ;
83 -> 85 ;
86 [label=<famrel &le; 3.5<br/>gini = 0.444<br/>samples = 6<br/>value = [2, 4]<br/>class = Pass>, fillcolor="#399de57f"] ;
82 -> 86 ;
87 [label=<gini = 0.0<br/>samples = 1<br/>value = [1, 0]<br/>class = Fail>, fillcolor="#e58139ff"] ;
86 -> 87 ;
88 [label=<gini = 0.32<br/>samples = 5<br/>value = [1, 4]<br/>class = Pass>, fillcolor="#399de5bf"] ;
86 -> 88 ;
89 [label=<Medu &le; 2.5<br/>gini = 0.124<br/>samples = 15<br/>value = [1, 14]<br/>class = Pass>, fillcolor="#399de5ed"] ;
81 -> 89 ;
90 [label=<famrel &le; 3.5<br/>gini = 0.245<br/>samples = 7<br/>value = [1, 6]<br/>class = Pass>, fillcolor="#399de5d4"] ;
89 -> 90 ;
91 [label=<gini = 0.0<br/>samples = 2<br/>value = [0, 2]<br/>class = Pass>, fillcolor="#399de5ff"] ;
90 -> 91 ;
92 [label=<gini = 0.32<br/>samples = 5<br/>value = [1, 4]<br/>class = Pass>, fillcolor="#399de5bf"] ;
90 -> 92 ;
93 [label=<gini = 0.0<br/>samples = 8<br/>value = [0, 8]<br/>class = Pass>, fillcolor="#399de5ff"] ;
89 -> 93 ;
94 [label=<Medu &le; 2.5<br/>gini = 0.128<br/>samples = 29<br/>value = [2, 27]<br/>class = Pass>, fillcolor="#399de5ec"] ;
70 -> 94 ;
95 [label=<Fedu &le; 2.5<br/>gini = 0.172<br/>samples = 21<br/>value = [2, 19]<br/>class = Pass>, fillcolor="#399de5e4"] ;
94 -> 95 ;
96 [label=<Medu &le; 1.5<br/>gini = 0.111<br/>samples = 17<br/>value = [1, 16]<br/>class = Pass>, fillcolor="#399de5ef"] ;
95 -> 96 ;
97 [label=<gini = 0.0<br/>samples = 4<br/>value = [0, 4]<br/>class = Pass>, fillcolor="#399de5ff"] ;
96 -> 97 ;
98 [label=<gini = 0.142<br/>samples = 13<br/>value = [1, 12]<br/>class = Pass>, fillcolor="#399de5ea"] ;
96 -> 98 ;
99 [label=<Medu &le; 1.5<br/>gini = 0.375<br/>samples = 4<br/>value = [1, 3]<br/>class = Pass>, fillcolor="#399de5aa"] ;
95 -> 99 ;
100 [label=<gini = 0.0<br/>samples = 1<br/>value = [0, 1]<br/>class = Pass>, fillcolor="#399de5ff"] ;
99 -> 100 ;
101 [label=<gini = 0.444<br/>samples = 3<br/>value = [1, 2]<br/>class = Pass>, fillcolor="#399de57f"] ;
99 -> 101 ;
102 [label=<gini = 0.0<br/>samples = 8<br/>value = [0, 8]<br/>class = Pass>, fillcolor="#399de5ff"] ;
94 -> 102 ;
103 [label=<gini = 0.0<br/>samples = 21<br/>value = [0, 21]<br/>class = Pass>, fillcolor="#399de5ff"] ;
69 -> 103 ;
104 [label=<famrel &le; 4.5<br/>gini = 0.061<br/>samples = 32<br/>value = [1, 31]<br/>class = Pass>, fillcolor="#399de5f7"] ;
60 -> 104 ;
105 [label=<gini = 0.0<br/>samples = 22<br/>value = [0, 22]<br/>class = Pass>, fillcolor="#399de5ff"] ;
104 -> 105 ;
106 [label=<Medu &le; 3.5<br/>gini = 0.18<br/>samples = 10<br/>value = [1, 9]<br/>class = Pass>, fillcolor="#399de5e3"] ;
104 -> 106 ;
107 [label=<Pstatus &le; 0.0<br/>gini = 0.444<br/>samples = 3<br/>value = [1, 2]<br/>class = Pass>, fillcolor="#399de57f"] ;
106 -> 107 ;
108 [label=<gini = 0.0<br/>samples = 1<br/>value = [0, 1]<br/>class = Pass>, fillcolor="#399de5ff"] ;
107 -> 108 ;
109 [label=<gini = 0.5<br/>samples = 2<br/>value = [1, 1]<br/>class = Fail>, fillcolor="#e5813900"] ;
107 -> 109 ;
110 [label=<gini = 0.0<br/>samples = 7<br/>value = [0, 7]<br/>class = Pass>, fillcolor="#399de5ff"] ;
106 -> 110 ;
111 [label=<Fedu &le; 3.5<br/>gini = 0.101<br/>samples = 262<br/>value = [14, 248]<br/>class = Pass>, fillcolor="#399de5f1"] ;
59 -> 111 ;
112 [label=<famrel &le; 4.5<br/>gini = 0.065<br/>samples = 177<br/>value = [6, 171]<br/>class = Pass>, fillcolor="#399de5f6"] ;
111 -> 112 ;
113 [label=<Medu &le; 1.5<br/>gini = 0.045<br/>samples = 131<br/>value = [3, 128]<br/>class = Pass>, fillcolor="#399de5f9"] ;
112 -> 113 ;
114 [label=<Fedu &le; 2.5<br/>gini = 0.153<br/>samples = 12<br/>value = [1, 11]<br/>class = Pass>, fillcolor="#399de5e8"] ;
113 -> 114 ;
115 [label=<gini = 0.0<br/>samples = 9<br/>value = [0, 9]<br/>class = Pass>, fillcolor="#399de5ff"] ;
114 -> 115 ;
116 [label=<famrel &le; 3.5<br/>gini = 0.444<br/>samples = 3<br/>value = [1, 2]<br/>class = Pass>, fillcolor="#399de57f"] ;
114 -> 116 ;
117 [label=<gini = 0.0<br/>samples = 1<br/>value = [1, 0]<br/>class = Fail>, fillcolor="#e58139ff"] ;
116 -> 117 ;
118 [label=<gini = 0.0<br/>samples = 2<br/>value = [0, 2]<br/>class = Pass>, fillcolor="#399de5ff"] ;
116 -> 118 ;
119 [label=<Pstatus &le; 0.0<br/>gini = 0.033<br/>samples = 119<br/>value = [2, 117]<br/>class = Pass>, fillcolor="#399de5fb"] ;
113 -> 119 ;
120 [label=<Medu &le; 2.5<br/>gini = 0.117<br/>samples = 16<br/>value = [1, 15]<br/>class = Pass>, fillcolor="#399de5ee"] ;
119 -> 120 ;
121 [label=<famrel &le; 3.5<br/>gini = 0.278<br/>samples = 6<br/>value = [1, 5]<br/>class = Pass>, fillcolor="#399de5cc"] ;
120 -> 121 ;
122 [label=<gini = 0.0<br/>samples = 2<br/>value = [0, 2]<br/>class = Pass>, fillcolor="#399de5ff"] ;
121 -> 122 ;
123 [label=<gini = 0.375<br/>samples = 4<br/>value = [1, 3]<br/>class = Pass>, fillcolor="#399de5aa"] ;
121 -> 123 ;
124 [label=<gini = 0.0<br/>samples = 10<br/>value = [0, 10]<br/>class = Pass>, fillcolor="#399de5ff"] ;
120 -> 124 ;
125 [label=<Fedu &le; 2.5<br/>gini = 0.019<br/>samples = 103<br/>value = [1, 102]<br/>class = Pass>, fillcolor="#399de5fc"] ;
119 -> 125 ;
126 [label=<gini = 0.0<br/>samples = 56<br/>value = [0, 56]<br/>class = Pass>, fillcolor="#399de5ff"] ;
125 -> 126 ;
127 [label=<Medu &le; 3.5<br/>gini = 0.042<br/>samples = 47<br/>value = [1, 46]<br/>class = Pass>, fillcolor="#399de5f9"] ;
125 -> 127 ;
128 [label=<Medu &le; 2.5<br/>gini = 0.062<br/>samples = 31<br/>value = [1, 30]<br/>class = Pass>, fillcolor="#399de5f6"] ;
127 -> 128 ;
129 [label=<gini = 0.0<br/>samples = 9<br/>value = [0, 9]<br/>class = Pass>, fillcolor="#399de5ff"] ;
128 -> 129 ;
130 [label=<famrel &le; 3.5<br/>gini = 0.087<br/>samples = 22<br/>value = [1, 21]<br/>class = Pass>, fillcolor="#399de5f3"] ;
128 -> 130 ;
131 [label=<gini = 0.0<br/>samples = 2<br/>value = [0, 2]<br/>class = Pass>, fillcolor="#399de5ff"] ;
130 -> 131 ;
132 [label=<gini = 0.095<br/>samples = 20<br/>value = [1, 19]<br/>class = Pass>, fillcolor="#399de5f2"] ;
130 -> 132 ;
133 [label=<gini = 0.0<br/>samples = 16<br/>value = [0, 16]<br/>class = Pass>, fillcolor="#399de5ff"] ;
127 -> 133 ;
134 [label=<Fedu &le; 2.5<br/>gini = 0.122<br/>samples = 46<br/>value = [3, 43]<br/>class = Pass>, fillcolor="#399de5ed"] ;
112 -> 134 ;
135 [label=<Medu &le; 3.5<br/>gini = 0.211<br/>samples = 25<br/>value = [3, 22]<br/>class = Pass>, fillcolor="#399de5dc"] ;
134 -> 135 ;
136 [label=<Medu &le; 2.5<br/>gini = 0.18<br/>samples = 20<br/>value = [2, 18]<br/>class = Pass>, fillcolor="#399de5e3"] ;
135 -> 136 ;
137 [label=<Medu &le; 1.5<br/>gini = 0.219<br/>samples = 16<br/>value = [2, 14]<br/>class = Pass>, fillcolor="#399de5db"] ;
136 -> 137 ;
138 [label=<gini = 0.0<br/>samples = 2<br/>value = [0, 2]<br/>class = Pass>, fillcolor="#399de5ff"] ;
137 -> 138 ;
139 [label=<Pstatus &le; 0.0<br/>gini = 0.245<br/>samples = 14<br/>value = [2, 12]<br/>class = Pass>, fillcolor="#399de5d4"] ;
137 -> 139 ;
140 [label=<gini = 0.0<br/>samples = 1<br/>value = [0, 1]<br/>class = Pass>, fillcolor="#399de5ff"] ;
139 -> 140 ;
141 [label=<gini = 0.26<br/>samples = 13<br/>value = [2, 11]<br/>class = Pass>, fillcolor="#399de5d1"] ;
139 -> 141 ;
142 [label=<gini = 0.0<br/>samples = 4<br/>value = [0, 4]<br/>class = Pass>, fillcolor="#399de5ff"] ;
136 -> 142 ;
143 [label=<gini = 0.32<br/>samples = 5<br/>value = [1, 4]<br/>class = Pass>, fillcolor="#399de5bf"] ;
135 -> 143 ;
144 [label=<gini = 0.0<br/>samples = 21<br/>value = [0, 21]<br/>class = Pass>, fillcolor="#399de5ff"] ;
134 -> 144 ;
145 [label=<Pstatus &le; 0.0<br/>gini = 0.171<br/>samples = 85<br/>value = [8, 77]<br/>class = Pass>, fillcolor="#399de5e5"] ;
111 -> 145 ;
146 [label=<gini = 0.0<br/>samples = 12<br/>value = [0, 12]<br/>class = Pass>, fillcolor="#399de5ff"] ;
145 -> 146 ;
147 [label=<famrel &le; 2.5<br/>gini = 0.195<br/>samples = 73<br/>value = [8, 65]<br/>class = Pass>, fillcolor="#399de5e0"] ;
145 -> 147 ;
148 [label=<gini = 0.0<br/>samples = 7<br/>value = [0, 7]<br/>class = Pass>, fillcolor="#399de5ff"] ;
147 -> 148 ;
149 [label=<famrel &le; 3.5<br/>gini = 0.213<br/>samples = 66<br/>value = [8, 58]<br/>class = Pass>, fillcolor="#399de5dc"] ;
147 -> 149 ;
150 [label=<Medu &le; 2.5<br/>gini = 0.375<br/>samples = 8<br/>value = [2, 6]<br/>class = Pass>, fillcolor="#399de5aa"] ;
149 -> 150 ;
151 [label=<gini = 0.0<br/>samples = 1<br/>value = [0, 1]<br/>class = Pass>, fillcolor="#399de5ff"] ;
150 -> 151 ;
152 [label=<gini = 0.408<br/>samples = 7<br/>value = [2, 5]<br/>class = Pass>, fillcolor="#399de599"] ;
150 -> 152 ;
153 [label=<Medu &le; 2.5<br/>gini = 0.185<br/>samples = 58<br/>value = [6, 52]<br/>class = Pass>, fillcolor="#399de5e2"] ;
149 -> 153 ;
154 [label=<gini = 0.0<br/>samples = 5<br/>value = [0, 5]<br/>class = Pass>, fillcolor="#399de5ff"] ;
153 -> 154 ;
155 [label=<famrel &le; 4.5<br/>gini = 0.201<br/>samples = 53<br/>value = [6, 47]<br/>class = Pass>, fillcolor="#399de5de"] ;
153 -> 155 ;
156 [label=<Medu &le; 3.5<br/>gini = 0.219<br/>samples = 32<br/>value = [4, 28]<br/>class = Pass>, fillcolor="#399de5db"] ;
155 -> 156 ;
157 [label=<gini = 0.375<br/>samples = 4<br/>value = [1, 3]<br/>class = Pass>, fillcolor="#399de5aa"] ;
156 -> 157 ;
158 [label=<gini = 0.191<br/>samples = 28<br/>value = [3, 25]<br/>class = Pass>, fillcolor="#399de5e0"] ;
156 -> 158 ;
159 [label=<Medu &le; 3.5<br/>gini = 0.172<br/>samples = 21<br/>value = [2, 19]<br/>class = Pass>, fillcolor="#399de5e4"] ;
155 -> 159 ;
160 [label=<gini = 0.0<br/>samples = 3<br/>value = [0, 3]<br/>class = Pass>, fillcolor="#399de5ff"] ;
159 -> 160 ;
161 [label=<gini = 0.198<br/>samples = 18<br/>value = [2, 16]<br/>class = Pass>, fillcolor="#399de5df"] ;
159 -> 161 ;
162 [label=<famrel &le; 1.5<br/>gini = 0.5<br/>samples = 100<br/>value = [49, 51]<br/>class = Pass>, fillcolor="#399de50a"] ;
0 -> 162 [labeldistance=2.5, labelangle=-45, headlabel="False"] ;
163 [label=<gini = 0.0<br/>samples = 5<br/>value = [5, 0]<br/>class = Fail>, fillcolor="#e58139ff"] ;
162 -> 163 ;
164 [label=<failures &le; 2.5<br/>gini = 0.497<br/>samples = 95<br/>value = [44, 51]<br/>class = Pass>, fillcolor="#399de523"] ;
162 -> 164 ;
165 [label=<famrel &le; 2.5<br/>gini = 0.491<br/>samples = 81<br/>value = [35, 46]<br/>class = Pass>, fillcolor="#399de53d"] ;
164 -> 165 ;
166 [label=<Fedu &le; 2.5<br/>gini = 0.408<br/>samples = 7<br/>value = [5, 2]<br/>class = Fail>, fillcolor="#e5813999"] ;
165 -> 166 ;
167 [label=<gini = 0.0<br/>samples = 4<br/>value = [4, 0]<br/>class = Fail>, fillcolor="#e58139ff"] ;
166 -> 167 ;
168 [label=<Fedu &le; 3.5<br/>gini = 0.444<br/>samples = 3<br/>value = [1, 2]<br/>class = Pass>, fillcolor="#399de57f"] ;
166 -> 168 ;
169 [label=<gini = 0.0<br/>samples = 1<br/>value = [0, 1]<br/>class = Pass>, fillcolor="#399de5ff"] ;
168 -> 169 ;
170 [label=<Medu &le; 3.0<br/>gini = 0.5<br/>samples = 2<br/>value = [1, 1]<br/>class = Fail>, fillcolor="#e5813900"] ;
168 -> 170 ;
171 [label=<gini = 0.0<br/>samples = 1<br/>value = [1, 0]<br/>class = Fail>, fillcolor="#e58139ff"] ;
170 -> 171 ;
172 [label=<gini = 0.0<br/>samples = 1<br/>value = [0, 1]<br/>class = Pass>, fillcolor="#399de5ff"] ;
170 -> 172 ;
173 [label=<famrel &le; 4.5<br/>gini = 0.482<br/>samples = 74<br/>value = [30, 44]<br/>class = Pass>, fillcolor="#399de551"] ;
165 -> 173 ;
174 [label=<Medu &le; 3.5<br/>gini = 0.444<br/>samples = 51<br/>value = [17, 34]<br/>class = Pass>, fillcolor="#399de57f"] ;
173 -> 174 ;
175 [label=<failures &le; 1.5<br/>gini = 0.462<br/>samples = 47<br/>value = [17, 30]<br/>class = Pass>, fillcolor="#399de56e"] ;
174 -> 175 ;
176 [label=<Pstatus &le; 0.0<br/>gini = 0.438<br/>samples = 37<br/>value = [12, 25]<br/>class = Pass>, fillcolor="#399de585"] ;
175 -> 176 ;
177 [label=<gini = 0.0<br/>samples = 2<br/>value = [0, 2]<br/>class = Pass>, fillcolor="#399de5ff"] ;
176 -> 177 ;
178 [label=<famsup &le; 0.0<br/>gini = 0.451<br/>samples = 35<br/>value = [12, 23]<br/>class = Pass>, fillcolor="#399de57a"] ;
176 -> 178 ;
179 [label=<Medu &le; 2.5<br/>gini = 0.391<br/>samples = 15<br/>value = [4, 11]<br/>class = Pass>, fillcolor="#399de5a2"] ;
178 -> 179 ;
180 [label=<Fedu &le; 2.5<br/>gini = 0.375<br/>samples = 12<br/>value = [3, 9]<br/>class = Pass>, fillcolor="#399de5aa"] ;
179 -> 180 ;
181 [label=<famrel &le; 3.5<br/>gini = 0.397<br/>samples = 11<br/>value = [3, 8]<br/>class = Pass>, fillcolor="#399de59f"] ;
180 -> 181 ;
182 [label=<Fedu &le; 1.5<br/>gini = 0.444<br/>samples = 3<br/>value = [1, 2]<br/>class = Pass>, fillcolor="#399de57f"] ;
181 -> 182 ;
183 [label=<Medu &le; 1.5<br/>gini = 0.5<br/>samples = 2<br/>value = [1, 1]<br/>class = Fail>, fillcolor="#e5813900"] ;
182 -> 183 ;
184 [label=<gini = 0.0<br/>samples = 1<br/>value = [0, 1]<br/>class = Pass>, fillcolor="#399de5ff"] ;
183 -> 184 ;
185 [label=<gini = 0.0<br/>samples = 1<br/>value = [1, 0]<br/>class = Fail>, fillcolor="#e58139ff"] ;
183 -> 185 ;
186 [label=<gini = 0.0<br/>samples = 1<br/>value = [0, 1]<br/>class = Pass>, fillcolor="#399de5ff"] ;
182 -> 186 ;
187 [label=<Fedu &le; 1.5<br/>gini = 0.375<br/>samples = 8<br/>value = [2, 6]<br/>class = Pass>, fillcolor="#399de5aa"] ;
181 -> 187 ;
188 [label=<Medu &le; 1.5<br/>gini = 0.278<br/>samples = 6<br/>value = [1, 5]<br/>class = Pass>, fillcolor="#399de5cc"] ;
187 -> 188 ;
189 [label=<gini = 0.444<br/>samples = 3<br/>value = [1, 2]<br/>class = Pass>, fillcolor="#399de57f"] ;
188 -> 189 ;
190 [label=<gini = 0.0<br/>samples = 3<br/>value = [0, 3]<br/>class = Pass>, fillcolor="#399de5ff"] ;
188 -> 190 ;
191 [label=<gini = 0.5<br/>samples = 2<br/>value = [1, 1]<br/>class = Fail>, fillcolor="#e5813900"] ;
187 -> 191 ;
192 [label=<gini = 0.0<br/>samples = 1<br/>value = [0, 1]<br/>class = Pass>, fillcolor="#399de5ff"] ;
180 -> 192 ;
193 [label=<famrel &le; 3.5<br/>gini = 0.444<br/>samples = 3<br/>value = [1, 2]<br/>class = Pass>, fillcolor="#399de57f"] ;
179 -> 193 ;
194 [label=<gini = 0.0<br/>samples = 1<br/>value = [0, 1]<br/>class = Pass>, fillcolor="#399de5ff"] ;
193 -> 194 ;
195 [label=<Fedu &le; 2.5<br/>gini = 0.5<br/>samples = 2<br/>value = [1, 1]<br/>class = Fail>, fillcolor="#e5813900"] ;
193 -> 195 ;
196 [label=<gini = 0.0<br/>samples = 1<br/>value = [0, 1]<br/>class = Pass>, fillcolor="#399de5ff"] ;
195 -> 196 ;
197 [label=<gini = 0.0<br/>samples = 1<br/>value = [1, 0]<br/>class = Fail>, fillcolor="#e58139ff"] ;
195 -> 197 ;
198 [label=<Fedu &le; 0.5<br/>gini = 0.48<br/>samples = 20<br/>value = [8, 12]<br/>class = Pass>, fillcolor="#399de555"] ;
178 -> 198 ;
199 [label=<gini = 0.0<br/>samples = 1<br/>value = [0, 1]<br/>class = Pass>, fillcolor="#399de5ff"] ;
198 -> 199 ;
200 [label=<Medu &le; 2.5<br/>gini = 0.488<br/>samples = 19<br/>value = [8, 11]<br/>class = Pass>, fillcolor="#399de546"] ;
198 -> 200 ;
201 [label=<famrel &le; 3.5<br/>gini = 0.5<br/>samples = 12<br/>value = [6, 6]<br/>class = Fail>, fillcolor="#e5813900"] ;
200 -> 201 ;
202 [label=<gini = 0.0<br/>samples = 1<br/>value = [1, 0]<br/>class = Fail>, fillcolor="#e58139ff"] ;
201 -> 202 ;
203 [label=<Fedu &le; 1.5<br/>gini = 0.496<br/>samples = 11<br/>value = [5, 6]<br/>class = Pass>, fillcolor="#399de52a"] ;
201 -> 203 ;
204 [label=<gini = 0.49<br/>samples = 7<br/>value = [3, 4]<br/>class = Pass>, fillcolor="#399de540"] ;
203 -> 204 ;
205 [label=<gini = 0.5<br/>samples = 4<br/>value = [2, 2]<br/>class = Fail>, fillcolor="#e5813900"] ;
203 -> 205 ;
206 [label=<famrel &le; 3.5<br/>gini = 0.408<br/>samples = 7<br/>value = [2, 5]<br/>class = Pass>, fillcolor="#399de599"] ;
200 -> 206 ;
207 [label=<gini = 0.0<br/>samples = 3<br/>value = [0, 3]<br/>class = Pass>, fillcolor="#399de5ff"] ;
206 -> 207 ;
208 [label=<Fedu &le; 2.0<br/>gini = 0.5<br/>samples = 4<br/>value = [2, 2]<br/>class = Fail>, fillcolor="#e5813900"] ;
206 -> 208 ;
209 [label=<gini = 0.0<br/>samples = 1<br/>value = [0, 1]<br/>class = Pass>, fillcolor="#399de5ff"] ;
208 -> 209 ;
210 [label=<Fedu &le; 3.5<br/>gini = 0.444<br/>samples = 3<br/>value = [2, 1]<br/>class = Fail>, fillcolor="#e581397f"] ;
208 -> 210 ;
211 [label=<gini = 0.5<br/>samples = 2<br/>value = [1, 1]<br/>class = Fail>, fillcolor="#e5813900"] ;
210 -> 211 ;
212 [label=<gini = 0.0<br/>samples = 1<br/>value = [1, 0]<br/>class = Fail>, fillcolor="#e58139ff"] ;
210 -> 212 ;
213 [label=<Medu &le; 1.5<br/>gini = 0.5<br/>samples = 10<br/>value = [5, 5]<br/>class = Fail>, fillcolor="#e5813900"] ;
175 -> 213 ;
214 [label=<Pstatus &le; 0.0<br/>gini = 0.444<br/>samples = 6<br/>value = [2, 4]<br/>class = Pass>, fillcolor="#399de57f"] ;
213 -> 214 ;
215 [label=<gini = 0.0<br/>samples = 1<br/>value = [1, 0]<br/>class = Fail>, fillcolor="#e58139ff"] ;
214 -> 215 ;
216 [label=<famrel &le; 3.5<br/>gini = 0.32<br/>samples = 5<br/>value = [1, 4]<br/>class = Pass>, fillcolor="#399de5bf"] ;
214 -> 216 ;
217 [label=<famsup &le; 0.0<br/>gini = 0.5<br/>samples = 2<br/>value = [1, 1]<br/>class = Fail>, fillcolor="#e5813900"] ;
216 -> 217 ;
218 [label=<gini = 0.0<br/>samples = 1<br/>value = [1, 0]<br/>class = Fail>, fillcolor="#e58139ff"] ;
217 -> 218 ;
219 [label=<gini = 0.0<br/>samples = 1<br/>value = [0, 1]<br/>class = Pass>, fillcolor="#399de5ff"] ;
217 -> 219 ;
220 [label=<gini = 0.0<br/>samples = 3<br/>value = [0, 3]<br/>class = Pass>, fillcolor="#399de5ff"] ;
216 -> 220 ;
221 [label=<Pstatus &le; 0.0<br/>gini = 0.375<br/>samples = 4<br/>value = [3, 1]<br/>class = Fail>, fillcolor="#e58139aa"] ;
213 -> 221 ;
222 [label=<gini = 0.0<br/>samples = 1<br/>value = [0, 1]<br/>class = Pass>, fillcolor="#399de5ff"] ;
221 -> 222 ;
223 [label=<gini = 0.0<br/>samples = 3<br/>value = [3, 0]<br/>class = Fail>, fillcolor="#e58139ff"] ;
221 -> 223 ;
224 [label=<gini = 0.0<br/>samples = 4<br/>value = [0, 4]<br/>class = Pass>, fillcolor="#399de5ff"] ;
174 -> 224 ;
225 [label=<Medu &le; 1.5<br/>gini = 0.491<br/>samples = 23<br/>value = [13, 10]<br/>class = Fail>, fillcolor="#e581393b"] ;
173 -> 225 ;
226 [label=<Fedu &le; 0.5<br/>gini = 0.408<br/>samples = 14<br/>value = [10, 4]<br/>class = Fail>, fillcolor="#e5813999"] ;
225 -> 226 ;
227 [label=<gini = 0.0<br/>samples = 1<br/>value = [0, 1]<br/>class = Pass>, fillcolor="#399de5ff"] ;
226 -> 227 ;
228 [label=<failures &le; 1.5<br/>gini = 0.355<br/>samples = 13<br/>value = [10, 3]<br/>class = Fail>, fillcolor="#e58139b3"] ;
226 -> 228 ;
229 [label=<Fedu &le; 2.5<br/>gini = 0.298<br/>samples = 11<br/>value = [9, 2]<br/>class = Fail>, fillcolor="#e58139c6"] ;
228 -> 229 ;
230 [label=<famsup &le; 0.0<br/>gini = 0.219<br/>samples = 8<br/>value = [7, 1]<br/>class = Fail>, fillcolor="#e58139db"] ;
229 -> 230 ;
231 [label=<gini = 0.375<br/>samples = 4<br/>value = [3, 1]<br/>class = Fail>, fillcolor="#e58139aa"] ;
230 -> 231 ;
232 [label=<gini = 0.0<br/>samples = 4<br/>value = [4, 0]<br/>class = Fail>, fillcolor="#e58139ff"] ;
230 -> 232 ;
233 [label=<Fedu &le; 3.5<br/>gini = 0.444<br/>samples = 3<br/>value = [2, 1]<br/>class = Fail>, fillcolor="#e581397f"] ;
229 -> 233 ;
234 [label=<famsup &le; 0.0<br/>gini = 0.5<br/>samples = 2<br/>value = [1, 1]<br/>class = Fail>, fillcolor="#e5813900"] ;
233 -> 234 ;
235 [label=<gini = 0.0<br/>samples = 1<br/>value = [1, 0]<br/>class = Fail>, fillcolor="#e58139ff"] ;
234 -> 235 ;
236 [label=<gini = 0.0<br/>samples = 1<br/>value = [0, 1]<br/>class = Pass>, fillcolor="#399de5ff"] ;
234 -> 236 ;
237 [label=<gini = 0.0<br/>samples = 1<br/>value = [1, 0]<br/>class = Fail>, fillcolor="#e58139ff"] ;
233 -> 237 ;
238 [label=<Pstatus &le; 0.0<br/>gini = 0.5<br/>samples = 2<br/>value = [1, 1]<br/>class = Fail>, fillcolor="#e5813900"] ;
228 -> 238 ;
239 [label=<gini = 0.0<br/>samples = 1<br/>value = [1, 0]<br/>class = Fail>, fillcolor="#e58139ff"] ;
238 -> 239 ;
240 [label=<gini = 0.0<br/>samples = 1<br/>value = [0, 1]<br/>class = Pass>, fillcolor="#399de5ff"] ;
238 -> 240 ;
241 [label=<Fedu &le; 3.5<br/>gini = 0.444<br/>samples = 9<br/>value = [3, 6]<br/>class = Pass>, fillcolor="#399de57f"] ;
225 -> 241 ;
242 [label=<Medu &le; 3.5<br/>gini = 0.375<br/>samples = 8<br/>value = [2, 6]<br/>class = Pass>, fillcolor="#399de5aa"] ;
241 -> 242 ;
243 [label=<famsup &le; 0.0<br/>gini = 0.245<br/>samples = 7<br/>value = [1, 6]<br/>class = Pass>, fillcolor="#399de5d4"] ;
242 -> 243 ;
244 [label=<Pstatus &le; 0.0<br/>gini = 0.375<br/>samples = 4<br/>value = [1, 3]<br/>class = Pass>, fillcolor="#399de5aa"] ;
243 -> 244 ;
245 [label=<gini = 0.0<br/>samples = 2<br/>value = [0, 2]<br/>class = Pass>, fillcolor="#399de5ff"] ;
244 -> 245 ;
246 [label=<Fedu &le; 2.5<br/>gini = 0.5<br/>samples = 2<br/>value = [1, 1]<br/>class = Fail>, fillcolor="#e5813900"] ;
244 -> 246 ;
247 [label=<gini = 0.0<br/>samples = 1<br/>value = [1, 0]<br/>class = Fail>, fillcolor="#e58139ff"] ;
246 -> 247 ;
248 [label=<gini = 0.0<br/>samples = 1<br/>value = [0, 1]<br/>class = Pass>, fillcolor="#399de5ff"] ;
246 -> 248 ;
249 [label=<gini = 0.0<br/>samples = 3<br/>value = [0, 3]<br/>class = Pass>, fillcolor="#399de5ff"] ;
243 -> 249 ;
250 [label=<gini = 0.0<br/>samples = 1<br/>value = [1, 0]<br/>class = Fail>, fillcolor="#e58139ff"] ;
242 -> 250 ;
251 [label=<gini = 0.0<br/>samples = 1<br/>value = [1, 0]<br/>class = Fail>, fillcolor="#e58139ff"] ;
241 -> 251 ;
252 [label=<famrel &le; 2.5<br/>gini = 0.459<br/>samples = 14<br/>value = [9, 5]<br/>class = Fail>, fillcolor="#e5813971"] ;
164 -> 252 ;
253 [label=<gini = 0.0<br/>samples = 1<br/>value = [0, 1]<br/>class = Pass>, fillcolor="#399de5ff"] ;
252 -> 253 ;
254 [label=<famsup &le; 0.0<br/>gini = 0.426<br/>samples = 13<br/>value = [9, 4]<br/>class = Fail>, fillcolor="#e581398e"] ;
252 -> 254 ;
255 [label=<gini = 0.0<br/>samples = 4<br/>value = [4, 0]<br/>class = Fail>, fillcolor="#e58139ff"] ;
254 -> 255 ;
256 [label=<Pstatus &le; 0.0<br/>gini = 0.494<br/>samples = 9<br/>value = [5, 4]<br/>class = Fail>, fillcolor="#e5813933"] ;
254 -> 256 ;
257 [label=<gini = 0.0<br/>samples = 1<br/>value = [1, 0]<br/>class = Fail>, fillcolor="#e58139ff"] ;
256 -> 257 ;
258 [label=<Fedu &le; 1.5<br/>gini = 0.5<br/>samples = 8<br/>value = [4, 4]<br/>class = Fail>, fillcolor="#e5813900"] ;
256 -> 258 ;
259 [label=<famrel &le; 3.5<br/>gini = 0.48<br/>samples = 5<br/>value = [2, 3]<br/>class = Pass>, fillcolor="#399de555"] ;
258 -> 259 ;
260 [label=<gini = 0.0<br/>samples = 1<br/>value = [1, 0]<br/>class = Fail>, fillcolor="#e58139ff"] ;
259 -> 260 ;
261 [label=<famrel &le; 4.5<br/>gini = 0.375<br/>samples = 4<br/>value = [1, 3]<br/>class = Pass>, fillcolor="#399de5aa"] ;
259 -> 261 ;
262 [label=<gini = 0.0<br/>samples = 1<br/>value = [0, 1]<br/>class = Pass>, fillcolor="#399de5ff"] ;
261 -> 262 ;
263 [label=<Medu &le; 1.5<br/>gini = 0.444<br/>samples = 3<br/>value = [1, 2]<br/>class = Pass>, fillcolor="#399de57f"] ;
261 -> 263 ;
264 [label=<gini = 0.0<br/>samples = 1<br/>value = [0, 1]<br/>class = Pass>, fillcolor="#399de5ff"] ;
263 -> 264 ;
265 [label=<Medu &le; 2.5<br/>gini = 0.5<br/>samples = 2<br/>value = [1, 1]<br/>class = Fail>, fillcolor="#e5813900"] ;
263 -> 265 ;
266 [label=<gini = 0.0<br/>samples = 1<br/>value = [1, 0]<br/>class = Fail>, fillcolor="#e58139ff"] ;
265 -> 266 ;
267 [label=<gini = 0.0<br/>samples = 1<br/>value = [0, 1]<br/>class = Pass>, fillcolor="#399de5ff"] ;
265 -> 267 ;
268 [label=<famrel &le; 3.5<br/>gini = 0.444<br/>samples = 3<br/>value = [2, 1]<br/>class = Fail>, fillcolor="#e581397f"] ;
258 -> 268 ;
269 [label=<gini = 0.0<br/>samples = 1<br/>value = [0, 1]<br/>class = Pass>, fillcolor="#399de5ff"] ;
268 -> 269 ;
270 [label=<gini = 0.0<br/>samples = 2<br/>value = [2, 0]<br/>class = Fail>, fillcolor="#e58139ff"] ;
268 -> 270 ;
}